encog,BasicNetwork,java,3.3.0,1,63631152343616
[BASIC]
[BASIC:PARAMS]
[BASIC:NETWORK]
beginTraining=0
connectionLimit=0
contextTargetOffset=0,0,0,0,0,0
contextTargetSize=0,0,0,0,0,0
endTraining=5
hasContext=f
inputCount=105
layerCounts=3,17,17,17,17,106
layerFeedCounts=3,16,16,16,16,105
layerContextCount=0,0,0,0,0,0
layerIndex=0,3,20,37,54,71
output=1,1,1,1,1,1,1,1,1,1,1,1,0.00000000000000000001,1,1,1,1,0.00000000000000000001,1,1,1,1,1,1,1,1,1,1,1,1,1,1,1,1,1,1,1,1,1,1,1,1,1,1,1,1,1,1,1,1,1,1,1,1,1,1,1,1,1,1,1,1,1,1,1,1,1,1,1,1,1,221.297857999997,3943,76.9171,77.0271,77.2143,76.4371,88674487,75.8125,75.8745,75.941,73.5071,1.0227,50.2041,23.681,14.685,22.6197,-0.1581,76.0387,-76.1968,78.4167,75.6785,75.6375,239.009319000001,3942,76.8228,77.3785,77.41,76.6814,50069657,76.956,76.408,76.1822,73.7151,0.9279,50.1408,23.6958,19.7209,9.5851,-0.0843,76.7756,-76.8599,78.8187,76.2868,75.9383,220.332196999995,3917,77.4828,77.5071,77.64,77.18,44803807,77.1289,76.5127,76.2341,73.7529,0.8655,50.1843,20.9811,17.0914,15.9879,-0.0771,76.9219,-76.999,79.0367,76.3595,75.9775,229.771960000003,3906,77.3414,76.97,77.5,76.8057,40472773,77.1218,76.5562,76.263,73.7849,0.8437,50.039,18.6285,14.8126,13.8562,0.0147,76.9315,-76.9168,78.5007,76.417,75.4393,187.977150000003,4289,77.1157,75.9743,77.1428,75.7971,68615246,76.8866,76.5008,76.2517,73.8067,0.9106,49.9903,16.5895,12.8376,12.0087,0.1402,1
outputCount=3
weightIndex=0,51,323,595,867,2563
weights=##0
##double#2563
   1657.0010278853,1655.5415715162,1656.8994717652,1646.2048702832,1641.92561791,1656.6712686833,1655.3233880923,1656.830866567,1655.5997659213,-3.8123904722,1655.6360755904,1655.5832988701,1655.9763259913,1644.06893818,-1.9114375505,1655.7098321331,1655.5774508717,1655.6210337416,1655.9392388614,1656.4747111337,1645.1184678749,1641.5499631792,1657.0224394348,1655.6036592523,1656.2139271756,1655.7398351042,-3.3005438874,1655.7453430064,1657.0660927663,1657.6506768889,1643.2372899006,1.2282767278,1656.1283402596,1656.229317917,1656.6429370611,1655.9173072552,1655.6135310181,1645.6303011713,1642.8394529507,1657.1738796162,1656.4511155823,1655.7371164439,1656.5391596782,-2.0954883729,1656.0545038495,1656.1724349974,1656.6433501805,1643.2672836817,0.0767907846,1656.0586734163,1655.9064839184,1653.2853356407,1656.1484411771,1657.8631946321,1655.6337595191,1657.2388431176,1662.0039669856,1656.2885124595,1657.1621376246,1655.8459547535,1655.7248961165,1655.9487945448,1662.3438878955,1656.9700844582,1662.6261206286,1656.7640213561,1656.638263809,1655.9360496267,1655.5554842902,1656.4392832226,1658.6029159966,1655.7841775042,1655.2442530425,1671.2046653138,1655.4368693263,1654.7457954665,1654.5188358818,1654.6977247141,1655.9666446326,1664.3690811847,1654.8016153593,1667.3916158416,1654.4074030566,1658.8641537739,1654.6788091403,1653.737379554,1656.0956970329,1656.6074106221,1656.7421964454,1655.2103899366,1667.8308943034,1656.7338934144,1656.353318408,1654.9880406811,1656.4404331286,1656.1192061507,1664.3580025333,1656.7707636438,1659.5838681233,1656.1463289705,1657.0295406562,1656.4862660569,1652.1431672345,1652.1647510956,1654.4870854467,1652.3159984214,1653.4722808073,1665.679345852,1652.2351810025,1652.8064143967,1651.9882960904,1651.6333189733,1653.3749747156,1662.0757017074,1653.1016327234,1660.1323208316,1653.1154510659,1654.4898819522,1652.9329882676,1647.4351334564,1642.3493919193,1643.6571091979,1641.6796445496,1641.8106469227,1654.0736588463,1641.9128348205,1641.868722835,1641.4438646335,1642.4149603003,1641.2936387455,1651.915728154,1641.0604547053,1649.0774857634,1641.3376964351,1644.5714804558,1642.1123302659,1655.9135630656,1656.2927264602,1654.4861173758,1655.4391242135,1656.4358239569,1643.1247894527,1656.041194983,1655.4218352244,1655.5055932598,1657.0696288671,1655.5899928026,1647.4097994139,1655.7912155642,1648.4414209128,1656.2849401071,1653.519699847,1656.1658728424,1655.856229499,1656.5208808281,1658.7216973864,1655.8102088152,1655.9788640144,1669.8346791898,1655.3258043864,1655.2247295155,1656.4879810489,1655.7653489132,1655.0654950224,1665.3724320676,1655.5720142006,1667.434424368,1654.9984695143,1659.9274712988,1655.5491618981,1654.6691811714,1655.4753729622,1658.4816067402,1656.7387757246,1656.0191364286,1668.5858746892,1655.9136441755,1656.8437928094,1655.6495848108,1655.4505208484,1656.3947529781,1663.3536639725,1656.8747994273,1661.9372890819,1656.281609936,1656.3288449803,1655.4981115428,1655.681096971,1655.003434482,1657.5422653624,1656.2511865595,1654.9134325747,1671.2413144348,1656.8798223866,1656.7002789311,1655.7076116729,1656.5637072676,1655.2058733143,1664.9824302474,1656.5870385885,1666.5646139136,1656.4290655941,1659.5827479305,1656.6579348992,-1653.6810542253,-1659.9290374645,-1657.4018861068,-1659.5026566484,-1658.672771418,-1645.345169911,-1659.0159268564,-1659.9096663686,-1659.6371356571,-1659.8647381883,-1659.115785776,-1647.8990478351,-1659.7682142227,-1649.8460150775,-1659.9141161318,-1656.0502788236,-1658.0392264704,1657.2932675657,1655.5976158554,1655.7864992642,1655.6763262197,1654.7571800139,1671.3400431738,1655.2777054954,1654.5988208359,1654.6589447289,1655.2844671201,1654.8675743726,1664.0545705194,1656.1962173077,1666.8259256487,1656.3157753469,1659.0478423089,1655.1065058175,1657.5457705218,1656.2023872639,1655.6240898489,1655.8196980416,1655.6404665938,1664.7403125255,1656.4437504734,1655.0138147383,1655.2232116418,1655.8950095789,1655.6256918819,1664.7635659642,1655.6420258662,1661.0875067746,1655.3173928971,1660.5333720854,1655.5604226063,1657.6938369243,1654.5616311651,1653.2225728067,1653.8961679532,1653.9350853709,1657.0414408208,1655.3735042231,1654.9589251949,1654.2687569181,1653.846984247,1655.0830384873,1658.9168886867,1654.5048306864,1652.8601225206,1653.8434008448,1657.6573033005,1654.6496296782,1656.4855649591,1652.0953035965,1653.9466525207,1651.2882067824,1651.5054477037,1668.7103031645,1651.4264916383,1651.2837150689,1652.4632955117,1651.6266749089,1651.4404697346,1663.3044388918,1651.5962938921,1661.3131821631,1651.9531057053,1653.9621335831,1651.6991849968,-1654.8716025055,-1661.0696087055,-1662.4058841814,-1661.4204628573,-1660.7959858861,-1653.1841450285,-1660.9202314794,-1661.1643594144,-1661.3736148686,-1660.7190767285,-1661.1783366419,-1651.7583633537,-1661.3946426721,-1655.8079496057,-1660.7720430197,-1656.8121602915,-1660.5629010565,1656.8668162116,1656.9554549326,1659.834029638,1657.0143718857,1656.1234682441,1670.0734243483,1656.7683361307,1656.3411023856,1656.6426803208,1656.9877388925,1655.7706415943,1664.7922505996,1656.6498757078,1668.5338935391,1655.6209551482,1660.6160574259,1656.3970292562,1640.1896529236,1638.119308498,1640.8537785757,1639.9809513606,1641.3638049063,1641.3976240048,1641.3085291406,1639.7425814732,1640.7188747936,1640.6912907894,1639.7878001787,1640.0084819554,1641.3658355929,1640.205187112,1640.9655880864,1640.2323144053,1641.5376441281,1658.0224252934,1657.0941187491,1658.702931054,1658.2226154176,1658.3558446294,1657.4527314469,1658.8145580845,1657.0815382617,1658.3447990948,1658.0128485958,1658.1811648876,1658.4223031669,1657.1239992239,1658.8601480851,1656.9139569899,1656.2772036213,1658.846971827,1654.4997437007,1655.5078645141,1655.0806584783,1654.1863427764,1654.0147371966,1653.7930103501,1655.0827083699,1653.7048173307,1653.7111618531,1655.4541751332,1655.2110793854,1653.8561850021,1654.2895548085,1655.6390835015,1655.0058159553,1654.8957654572,1653.9086089965,1657.7180461146,1657.3054133418,1658.5373120205,1658.3473274607,1658.7765897755,1658.8064381636,1657.9316141901,1658.5015966081,1658.2194429171,1657.4887436344,1657.9760527689,1657.7456233571,1657.1638075163,1659.3519740679,1657.2798520344,1656.7925106312,1658.6406055039,1658.4182261303,1656.0894359672,1658.045282397,1658.4296967264,1657.9984669586,1658.7327157282,1657.5132104527,1658.6834322727,1658.1794367237,1658.3046656328,1657.5544236884,1658.1296572316,1658.2257645991,1659.1286212358,1658.6093347074,1657.2271536494,1659.2107977573,1652.2862420781,1655.235693165,1652.7956516373,1653.4998547282,1652.7654783646,1652.0183911121,1652.1082532357,1653.8518695148,1652.0596174392,1652.5913909824,1651.5740865095,1652.5214390756,1653.1081086441,1653.2936249756,1653.1455664022,1654.5756046724,1651.5203246826,1656.5501737,1655.8448048588,1656.9026346526,1657.145718315,1656.5968953144,1656.7788470663,1657.1715048641,1656.7693503937,1656.2150389912,1655.9264531413,1657.6286501129,1655.9972865366,1657.0501413276,1656.8756902596,1656.2063973014,1656.5227142025,1656.1533986607,1660.1992527245,1658.6113193814,1661.3181018905,1660.6462142732,1660.708515095,1660.3378695515,1660.8787512463,1660.3850931287,1660.0429014426,1660.6630767963,1661.7358198197,1660.5058752038,1658.4084835402,1660.7417223655,1658.9519847329,1660.0389764909,1661.2895010901,1659.9278848682,1657.3948154173,1659.6453526802,1658.2901537857,1658.5194887724,1657.6321672497,1658.498326012,1657.8455359738,1659.4100997812,1657.9297250757,1659.7663408272,1659.0409115382,1658.0684934557,1658.1371931438,1658.4357580542,1658.2022168333,1658.9382186635,1658.1085448317,1656.910684851,1658.3315674304,1657.7175517753,1659.2334754179,1658.8870759996,1658.7156963739,1658.1265678271,1658.164293676,1657.7709124537,1658.8488383925,1658.1438379858,1658.5572750864,1658.0890162819,1658.484574534,1657.5884087458,1659.594222962,1658.1296436702,1657.2177063903,1658.5764812791,1658.2728482899,1659.2876171251,1659.0818779166,1658.3467098733,1659.1523943335,1658.5998310153,1657.9837106799,1659.6346892004,1658.1440511194,1657.5843376411,1659.1360876644,1658.2553316044,1658.8331053921,1658.3365946466,1652.1145040325,1653.6820561799,1651.7605111565,1653.0444968949,1652.4220487704,1651.3635766706,1652.5772472455,1652.2413930078,1652.0226346925,1652.4863720182,1651.6375234135,1651.677006707,1651.988133342,1652.4145406596,1652.4517318062,1653.3344043734,1651.3477590826,1657.4188679556,1655.7862112137,1657.9808186257,1657.6022237972,1656.8495854639,1656.0075902843,1658.1761941659,1657.3794470389,1657.6044174977,1657.2769528612,1657.5506681783,1658.0414947282,1656.6974200066,1657.9407389749,1656.1558483917,1655.5224289807,1656.996639811,1642.1341825897,1643.630827679,1642.6754353478,1644.3114816192,1642.8326251961,1643.8785348758,1642.3238539764,1642.5611344322,1643.3338013232,1642.4605950163,1642.3736051344,1642.8133434433,1644.4758424115,1642.8279009421,1642.4854654898,1643.6602846757,1642.0912624895,1657.3716352101,1656.8242535135,1658.9719720884,1657.9918123016,1657.4804198664,1658.6153360387,1658.2434006578,1657.893333999,1658.3974597702,1658.710032426,1659.0386183292,1658.6270843479,1656.2862518485,1657.1315062719,1658.4115751032,1656.7604848122,1657.8850154021,1652.0681566874,1651.6300284076,1650.5319842668,1651.5963768685,1651.2841317559,1652.589919937,1651.0955063928,1651.9995239565,1652.6401571534,1652.6002402633,1650.9306461625,1651.8830904223,1650.6088363233,1650.9306853975,1652.4665994635,1651.4675899016,1651.0809743592,1232.7189510335,1641.5994645582,1220.9208650324,1222.6373078625,1221.309555381,1640.9608756335,1220.9542733201,1636.4847214834,1238.2944931244,1220.463943738,1221.6757896315,1233.5281084401,1640.7209913745,1221.0321010972,1233.7837280393,1206.1733389002,1643.5778831538,1233.6910016307,1640.0354834404,1217.4117080319,1223.0751523063,1220.0470009578,1642.1021916734,1219.0673377221,1636.8023349444,1235.6290969651,1218.1997566232,1218.480046993,1232.0459719554,1641.8065948357,1219.1178613672,1234.1311510271,1206.8508993548,1642.2202646422,1232.8095938885,1641.4533458698,1220.0486590057,1222.928553551,1220.0486107797,1642.4496963942,1220.5583675957,1636.9923081408,1237.2330272528,1220.3427679366,1220.4124947774,1232.8766902618,1641.8965239208,1219.323037299,1234.1948007804,1206.1439321284,1644.1912212156,1233.5240973468,1643.362368558,1218.2437019679,1222.108987167,1219.8128304324,1646.134116561,1218.6412986058,1640.6541417533,1236.7807585373,1218.7649026193,1220.4242769784,1232.8802979773,1646.1175581751,1217.4633042059,1233.058391925,1206.5078381451,1645.8333283404,1232.9458213581,1639.8476398061,1219.854759888,1223.4304987942,1219.8489992925,1643.0833802251,1221.1660543592,1636.9108870441,1237.6338153904,1220.398496909,1221.2470199369,1234.0374534969,1642.323020813,1219.4694217077,1233.6600258926,1207.2352943553,1644.2128523757,1233.9486653501,1641.2069857772,1219.9897725892,1223.1485814796,1218.9236539573,1643.127004019,1220.2901294528,1638.2153733157,1236.076662677,1218.2539207894,1219.7926027673,1233.3676016816,1641.1958623589,1219.2661766486,1233.1878308224,1205.6407205099,1644.2602326775,1233.1732631372,1640.2144278406,1219.5528959044,1223.6943580771,1220.3423006179,1641.8657432914,1220.2487481776,1638.0109084691,1237.9337817607,1219.6803557424,1221.2050435545,1233.8657119146,1642.6201306303,1220.1202633153,1234.3918264287,1207.3710465459,1644.9702652825,1233.6199734163,1640.3819175889,1219.847079748,1222.6086260291,1220.9103849015,1641.8558613296,1219.4751217898,1638.2191361295,1236.583901057,1219.3407851251,1220.4712737977,1234.3798339493,1641.1576834502,1219.020077456,1233.5893169458,1206.8333114166,1643.314750604,1233.6819900485,1640.2054848892,1220.1093216257,1222.6830350621,1219.1991383275,1641.5369117983,1221.2483556071,1637.5758111285,1235.9778014562,1220.3617771303,1219.9871106179,1234.7929953647,1642.4209035388,1220.1698227668,1234.2099390042,1206.0257773762,1643.0854062747,1234.1619816644,1640.8850373176,1220.3330214311,1223.2358698746,1219.5545484583,1642.5013671338,1220.98131486,1637.0844283363,1236.3616353409,1220.6423977741,1221.0592665029,1233.7631120781,1639.8332937622,1221.1018263312,1234.6281363113,1207.231980869,1643.5269792173,1233.3958113116,1639.8260890012,1221.3255895371,1222.0279093005,1221.4321138085,1641.3666292048,1221.672281778,1637.8589350518,1238.1178647008,1222.3265730027,1221.8691092943,1234.5728831171,1643.845328523,1220.1002561659,1236.8865383044,1208.1494805767,1645.1136360092,1233.5015417171,1640.8799430546,1219.8334000022,1222.9204046553,1219.8837535951,1641.1071312194,1220.5163073979,1637.8510648833,1237.9354983211,1220.2690764403,1221.231211858,1233.1455715693,1639.5706523124,1221.2039219684,1233.5169255786,1206.6663215376,1643.8641500977,1233.7656064635,1639.4645736735,1219.5331812363,1223.1624369159,1218.8708729228,1642.2428737516,1219.0879566038,1636.3632987021,1236.8613585279,1218.4902727144,1219.4883284531,1233.4732406453,1642.2575969451,1218.876253922,1232.3429890982,1205.0763028032,1643.0805929652,1232.9681904643,1639.591836924,1218.6910433783,1223.1591205756,1220.7895586461,1641.4302791018,1219.7328738159,1637.7553511481,1236.398569317,1219.2200795813,1219.9689008905,1232.5060335642,1641.3772525256,1218.7604388206,1235.0667776106,1207.7182758598,1643.4660092306,1233.2920542939,1639.9160556138,1218.7691157759,1222.9773219576,1219.9011195621,1641.1701463316,1218.913186686,1638.590667154,1235.4373426352,1218.5974348625,1219.1401951458,1233.0234227149,1641.0892847725,1217.6199628827,1234.6029177491,1206.6263370609,1642.9380580687,1233.1169932067,1641.4632744725,1218.7656832527,1222.6959413212,1220.2716813912,1641.7649501216,1219.4289760382,1636.8505807768,1235.873750278,1218.3651646128,1219.8806406548,1232.4377673786,1641.4994063562,1216.9265928237,1233.5397760955,1206.8501935705,1643.63301485,560.0779753214,1905.3059726019,1687.6181663581,1686.716814752,1684.9530093552,1688.8059007072,1150.743063902,1685.5794956186,1691.0325585583,1690.5967193971,1768.9515130192,1562.3751011705,1683.4828307414,1528.2432700816,1719.5997591609,1633.5746503091,-415.5813575657,1690.7205772222,-1687.336912417,1683.7866015176,1683.7364229699,1688.3309186218,550.4900115812,1907.2464780015,1689.360973414,1689.0305994735,1686.3894547052,1688.3242726286,1152.2069813419,1686.7324235555,1690.8651036661,1689.8627866725,1769.3624576181,1574.0336218646,1683.5702424161,478.468982017,1712.8896075527,1634.5485693486,-1902.9493156946,1687.3448487098,-1691.8037914743,478.5183819148,1684.6342440364,1689.3128218337,518.8295590539,1903.9308127897,1688.6493740134,1688.8633299021,1686.6125853535,1688.8986446972,1184.2754179278,1689.4411675739,1687.1639691743,1692.3912537795,1767.1268849511,1429.6629645391,492.0494008665,1539.1801115574,1704.0311607773,1640.0897418181,-1910.6606225164,1688.4186071326,-1901.4048560006,1683.7409182963,1686.2745258265,1689.9829953527,518.8421098764,1903.4778203816,1689.3693522067,1687.5647206588,479.2345289325,1688.7099721181,1183.0744523991,1688.9262293112,1680.687821775,1687.6574272923,478.5516254974,479.7753785189,1675.8200372342,1538.62013703,1702.0337219641,1641.6995990587,-1910.0291497649,480.6897907533,-1691.3939545043,1685.918960953,1686.8181339147,1689.6953178018,488.4550966458,1902.3460464019,1688.8694813119,482.0943985878,1688.5277847284,1689.2861526045,1183.2353590279,1689.6934284858,1688.9354163569,480.9095653363,477.0468463796,480.0881901312,1676.632785709,1572.7656101975,1706.6389880708,1644.9195622452,-1906.2341231103,1641.8323050754,738.1858928455,1374.1599368816,1589.8080046426,1590.2273969189,1590.9742765412,1589.4314118469,1508.8328235373,1591.101596242,1587.6622628489,1588.846516452,1499.4346024213,1655.3648408517,1594.8191981283,1627.5998806625,1549.1497543015,1645.3257555594,-947.6953917604,1588.6931640786,-1590.4505010567,1594.6194158474,1592.7609559799,1587.280693629,747.0259698711,1386.1488890059,1589.7757433391,1589.5060761878,1591.1239852369,1588.5990107951,1508.8820079003,1591.3967318482,1588.3291966471,1588.6497260676,1499.4721889473,1643.9936072654,1593.1858587477,1012.0531498221,1555.1434605125,1646.0124644971,-1356.5442428458,1589.395135848,-1588.9036196937,1022.3573822557,1593.1707515438,1587.6870709557,717.4955160623,1386.1688609615,1587.8772677322,1588.7847463888,1590.5910040602,1587.8388602828,1539.8941192508,1589.5784164513,1588.5166281455,1587.9330524288,1499.7399765686,1601.8215486687,1014.6610390556,1618.0160217735,1571.0342969392,1641.4092528252,-1370.8679771617,1587.904094135,-1358.8087176376,1593.230980855,1592.1186636662,1588.8627293435,717.0810055647,1381.8205657996,1588.370097545,1589.0994625473,1011.6865172179,1589.1345464126,1543.328446571,1588.0584365526,1588.4963443746,1588.1939099598,1021.1377962767,1020.4965354324,1598.1396907846,1617.1717992726,1573.2692819971,1638.2080454331,-1379.1006550501,1021.401519609,-1588.3025376309,1591.5877450911,1590.4829854134,1588.4463826983,685.1721498558,1374.8499718581,1588.7305164386,1023.0558585356,1588.9073729315,1588.4747503122,1542.3224189573,1588.263209761,1587.6441773524,1024.5866709771,1014.7660135829,1021.6474067424,1600.7968957265,1645.9124816697,1571.8863558365,1636.566614461,-1359.4087163478,1635.0093987146,560.7988599739,1925.6623908449,1687.9999617241,1689.3167986686,1688.628512849,1689.2355379511,1145.4592171845,1687.7050699331,1690.6732547289,1688.9859523752,1779.6628571679,1561.0471118695,1683.4294860261,1528.2382177226,1730.3726814539,1633.3659762095,-406.6504724065,1689.7909388402,-1687.6715189468,1684.6356207738,1685.9161169872,1690.7305427765,550.8863039885,1873.8108210984,1689.30688488,1689.1631006187,1688.9391249018,1690.4824220211,1144.7931931709,1688.0141599692,1691.1538210552,1689.7053390217,1779.3848417564,1571.5195659742,1683.3431645204,468.6666395189,1721.6569101083,1632.8200840098,-1935.6072281028,1690.9799144551,-1689.7090324861,448.5490906781,1687.6997546981,1691.799117798,520.2627765457,1873.4447416142,1689.7792863071,1690.3632450406,1689.2892346124,1689.356785309,1176.3388563525,1690.6258079317,1691.7791462419,1689.8450794847,1779.022503777,1429.5407307854,487.6771349484,1534.3316307304,1711.4095243856,1636.1930219622,-1925.9362756195,1690.7079452156,-1936.70817729,1686.4829176598,1687.3489588849,1690.1144319559,521.0517695314,1874.0800470579,1689.494036224,1690.5095633145,457.3547519018,1690.4425355439,1176.9286723198,1690.8688825794,1692.8278796039,1690.5373036536,447.6570518993,447.012075994,1680.1375718928,1535.2891824748,1706.0862561909,1639.0122150075,-1920.2471437978,446.7800667759,-1687.9795530227,1687.535737823,1687.7650513879,1692.5468036014,489.8592461698,1875.0801015724,1691.0810524008,456.9368887291,1689.6136696001,1691.5796410727,1176.5262867017,1689.7626358651,1691.0641684704,447.4259236293,462.7686022574,447.267220593,1683.6631984726,1564.1115156268,1707.2427523752,1642.6267442773,-1930.2795915546,1643.4454519194,560.804519922,1906.2013877843,1688.3544996762,1688.5130348492,1688.7284672992,1689.2249006155,1150.7350496261,1686.8566501265,1691.796375383,1691.7985076201,1770.0575640277,1564.0704450887,1683.9231354458,1528.1786888625,1716.3723876536,1632.0831359952,-412.2404174361,1691.2327118261,-1689.2447510359,1686.4572933097,1685.9985507388,1690.1993185029,551.0071759813,1895.1949242632,1689.3284793227,1689.9517086862,1688.9109712246,1688.9452585428,1150.9140979043,1688.1193670813,1692.6536636312,1692.7664158285,1769.7553661829,1574.979841425,1684.31434843,471.5676076142,1714.3990128956,1631.9327544379,-1917.4326435727,1691.528687321,-1692.3511239326,461.6812755272,1686.3989573734,1691.845907161,520.6327045144,1895.3094415105,1690.530441452,1689.8658522079,1687.6471516573,1690.5665129732,1181.8821278545,1690.6040337093,1689.6501430237,1692.9935033241,1773.7849075227,1415.0217986614,487.4291770473,1537.6624378059,1704.0642665554,1638.0245815132,-1904.8692380693,1691.6443574178,-1906.3830203741,1685.6783987191,1687.3051941689,1690.8005431198,519.3511241166,1894.7584936232,1689.6058899151,1689.3998552361,471.8247914234,1690.3169504931,1183.2776754032,1689.5017655019,1684.3857017809,1690.9532776578,462.016523071,479.51558229,1676.4317398687,1539.9020401414,1701.5640672408,1640.4145007413,-1902.9791746096,479.1582624179,-1689.5219379382,1688.4022333896,1689.2762446867,1691.2625022286,490.0811743217,1892.6777878983,1690.2950578239,476.2592089687,1690.8187933917,1691.116461216,1182.1868470361,1689.7199917173,1691.7639115958,477.0486520299,476.4638677,480.3778766691,1675.2340206162,1573.0113734491,1701.1391929189,1645.3211934823,-1905.4850847285,1642.9258257078,560.1558307765,1916.4792665024,1687.5294491553,1687.6559157615,1687.9366445342,1688.4283561379,1147.8343498425,1686.8250529995,1690.3787648501,1688.2768530964,1777.0688568512,1559.488690377,1683.2189843826,1526.9245637426,1725.3232813391,1634.2940238922,-404.8469639348,1689.9657144783,-1686.7645063369,1685.5334489646,1684.049411538,1690.8131100352,551.2605679232,1884.7865689561,1688.8220904861,1689.5541320008,1687.8635939499,1689.2499126798,1146.9702538929,1687.2443267296,1690.0815406476,1689.7970363017,1775.4521180691,1568.6661873744,1682.884671818,466.6911895941,1718.6062000506,1631.1221887382,-1926.8638525076,1689.0249697655,-1691.344031803,456.5111144361,1685.7849121656,1689.947608533,519.9365709629,1884.5349031214,1688.3736481073,1689.4134972349,1686.8030109443,1690.1367787011,1175.0451760939,1689.961358379,1690.9048165116,1691.5285511056,1774.8148265917,1427.6908833226,475.811116119,1533.3270664102,1707.3260950899,1635.4971189935,-1915.9001198754,1690.4850294545,-1926.7907307441,1685.5711287226,1686.0317676162,1691.1113532566,518.5982469938,1885.1561200598,1690.3991348138,1689.1068662021,466.5543812256,1690.0794688567,1178.5358932302,1688.5016254267,1694.1858015568,1690.3967042309,456.1525711033,456.2392513005,1677.6085083824,1532.963349874,1703.6734084274,1639.0322553671,-1912.3606029244,457.3391614168,-1689.4960513146,1685.6768390294,1686.9321460959,1690.7175199587,487.7702982113,1884.5766477571,1689.8804701896,445.4004729442,1689.5272900477,1691.2160703093,1165.0617173297,1688.7055828741,1690.64556095,456.419177437,445.4994628515,457.7811343843,1675.4561327368,1563.4071544225,1706.9979464012,1642.0164648534,-1927.0048709262,1642.6900051005,719.2018822702,1384.1955445157,1610.4644664228,1610.2422299576,1610.191231458,1608.7605864003,1492.8715589598,1611.6429495121,1607.4602753145,1610.0945560084,1519.8734586842,1638.2545702892,1613.9213317493,1609.6852993014,1569.0286666042,1646.6605401966,-935.5581728868,1607.7099800278,-1609.2776801,1612.6175645359,1612.1257191517,1606.1801755235,729.4828855283,1414.591901224,1607.2044203305,1608.469708947,1610.5073324257,1608.2260042434,1493.0824815593,1609.5246351023,1608.0944904498,1608.6418297997,1519.3722303793,1626.4847206514,1615.7623183456,1008.2150337979,1575.8023904937,1648.8197135181,-1373.8161668699,1607.8616147945,-1609.1445942227,1008.6731550913,1613.2788563555,1606.2249431507,697.8943237968,1410.8274555283,1607.79246838,1606.7927554836,1608.9282949593,1606.7132676101,1524.7300356597,1607.53931037,1607.8576136391,1609.1449500148,1519.6014551504,1585.2500011281,997.6608824025,1600.9074207187,1587.9931779558,1643.1869308648,-1388.4679910648,1607.1355720716,-1366.8948673698,1612.7827041087,1611.718304471,1607.0115142604,697.9660264981,1406.947782685,1607.3608610039,1608.521846177,1009.2013888945,1607.48115361,1523.8477085132,1607.8957731762,1603.2965512219,1607.0643700753,1008.2751402858,1007.859035269,1618.8714856208,1601.0411923086,1592.0347020776,1639.7763954723,-1389.3402638342,1008.0630388928,-1608.5148184636,1610.5108878032,1609.5670066712,1605.9624750582,665.9142726579,1411.1056902398,1608.0213864234,1006.9064130454,1607.2306974889,1605.7886636999,1523.1315156252,1613.0014829882,1608.0157456303,1016.8108817876,1010.4319207529,1008.4866005722,1621.2028189097,1632.4118791698,1589.3882368345,1639.5419685688,-1362.6511705058,1638.3034674417,562.2159853783,1924.5024491748,1689.4987961463,1688.8072086582,1688.6677353705,1689.744535035,1145.2580948333,1687.6259873259,1689.8929097804,1688.8063164021,1779.0230355264,1561.5393053159,1684.6171790619,1528.236367303,1730.973450102,1634.7419128677,-407.3944460288,1691.370304738,-1687.3527366215,1686.278403531,1685.2511410259,1691.5649595147,552.2484957166,1873.3994209253,1690.5320620064,1690.4854368937,1688.3799779951,1690.8576872327,1145.8716163476,1689.0536972979,1691.3359013048,1689.6320127051,1778.5433600349,1571.821275101,1684.3696053046,469.1211478577,1724.9581557251,1633.6603375245,-1933.2309389764,1691.6583439095,-1689.7022883128,448.5223849888,1686.6602200588,1691.0163301913,520.8011159109,1873.8485980724,1690.060589686,1690.7765050202,1689.5322180657,1690.7557347393,1176.977593789,1690.1808414801,1692.9075105504,1687.8195507854,1781.2290712661,1428.9866539836,501.2147267681,1536.5129372509,1711.3265089037,1636.2577906778,-1925.0010396134,1691.4781612014,-1936.0718229714,1687.6927902678,1687.9635990005,1691.9990048791,521.1365359595,1873.6616052203,1691.2570289568,1690.8817221338,459.8393168327,1690.4530648595,1177.7940795842,1690.5297285923,1692.2236114589,1691.178743524,450.0787918572,446.4406413286,1681.3675372943,1535.7372995512,1707.2260343154,1638.3879704956,-1920.6130739019,446.3776180873,-1691.5135547827,1688.4367757764,1688.0852217765,1691.0054331932,490.2865705464,1875.104407722,1689.7661448742,466.9237701108,1691.6742958484,1691.1114259021,1176.8380885602,1692.1073718796,1690.3549751938,446.6978186394,453.347531917,446.9905321413,1684.6037468281,1565.6559046203,1709.6699205199,1642.6196223923,-1930.7038340152,1644.785090775,751.0295634115,1354.5071108325,1576.8617974626,1575.2763328797,1576.9502971817,1573.5963282955,1524.7057416361,1576.3169679346,1575.4734269041,1575.843601894,1490.4657060409,1671.0971138527,1583.6723736139,1642.1708327002,1538.7182355658,1629.9683243527,-968.4363066447,1576.4519643712,-1575.9632760056,1579.555151933,1579.3826637251,1573.6480795883,760.6952064666,1378.1156069664,1573.625670796,1573.3500006414,1576.0072191747,1573.1184481726,1525.8746649958,1575.783532361,1576.0203623304,1574.8996492071,1491.6215314552,1660.0511580368,1582.8098837605,1017.1880578373,1545.2978564209,1637.7386647479,-1353.7466764268,1564.3229516871,-1587.6225410693,1027.5555165474,1578.8080830685,1573.3655323633,729.2463242947,1378.8180319176,1573.1223858204,1573.1136695305,1572.5202482008,1573.2619355254,1556.7454096934,1573.9557073255,1564.20648639,1587.423877948,1480.0265848698,1609.510053264,1033.310295961,1634.7072775745,1557.8048232211,1632.1324280799,-1349.5549836903,1574.983981458,-1329.8498884264,1578.773887855,1576.307102742,1573.5491130187,730.8254382594,1377.7594021195,1575.0722664558,1575.2148392998,1017.8268315173,1574.5327862513,1556.2532027241,1575.0105501586,1572.503819988,1572.0383337093,1028.357192944,1040.4769838771,1577.4830484347,1633.2308439803,1559.8669749347,1625.7015092329,-1358.4036575795,1040.7980088558,-1574.947672743,1576.2578162436,1576.6492595315,1572.8434413495,698.5991051024,1368.4370150353,1568.6237736669,1042.7857635397,1573.9592757512,1572.4480542897,1555.5663058559,1575.3104161295,1576.0635094932,1054.1740383706,1040.6821729052,1039.3561689906,1586.8918760714,1665.1319394147,1556.9918821939,1621.368006692,-1332.1261106634,1620.1384534788,560.5965110729,1899.0758275383,1689.3161612806,1689.0673177869,1688.8075395515,1690.4350405205,1167.0490841101,1687.7134854509,1689.8658379251,1690.9794679935,1765.3384456413,1568.6170129363,1680.6609083527,1527.2147829562,1715.9168214435,1634.2838170995,-442.2977111327,1689.1549642525,-1689.9100134033,1686.5346124123,1687.0534765858,1691.5506516849,550.2587706694,1911.4942742657,1690.4115361453,1690.6539836878,1688.4844116621,1689.0706404574,1167.4552535004,1687.6084883361,1690.1549753071,1690.9468476258,1763.4666867464,1577.6860389004,1679.7260975315,510.2098909349,1708.2177681239,1637.8400411932,-1903.8662717201,1690.6698249511,-1688.9640351586,503.6709129768,1688.8988947891,1691.3113480728,518.9947404484,1910.3419675891,1689.055078871,1688.9960528655,1689.8515865782,1689.4751622701,1198.5605547462,1688.868302078,1689.945279753,1688.6267773545,1763.9254956656,1438.0877130228,535.5245722476,1544.1646541131,1702.7785707445,1643.3327810838,-1884.8832849753,1689.2652604663,-1874.7252011964,1686.3069726763,1688.5681706142,1690.74085496,519.1216572901,1909.1685970518,1689.7422901624,1690.035602146,509.981877736,1689.0554562416,1198.066472026,1690.1931730757,1690.8369440087,1689.8832825582,503.7777495799,483.1587951706,1676.0636662078,1543.1231459896,1702.1645490239,1647.284955265,-1902.7800573585,482.9647418401,-1687.8620314682,1686.5614989495,1688.322735101,1689.7539741078,486.9733894457,1910.6765939811,1689.1329832071,512.0060483796,1688.7660478841,1691.0647962301,1197.1547614723,1693.4503747417,1689.2979909329,508.8073611911,502.3810254727,484.0918725483,1681.0522957813,1576.2598473709,1702.338092894,1650.2707735747,-1881.5027492013,1642.9195253454,562.2626903238,1926.2234874755,1688.4503687563,1690.1125687647,1689.5865746823,1690.9319134794,1145.178223248,1688.8899662553,1689.8727716383,1690.0476376322,1779.3791274854,1561.8882083266,1684.1941008926,1529.1768688653,1730.2089840298,1633.9771869114,-397.158483243,1691.9445839587,-1689.4298039877,1685.8153456653,1686.1034205536,1692.8034937213,552.4021500029,1873.4414430877,1690.3246004776,1691.6306967931,1689.6773589337,1690.3764158622,1145.6662797168,1690.0407206369,1689.9844855688,1691.4017082406,1779.3389062943,1572.7713776899,1683.1320954412,473.3455386115,1722.5433977376,1632.7148568714,-1930.957579852,1692.4798267128,-1691.3188256131,452.5144424883,1686.9430271738,1692.3709028788,523.1682206713,1873.9760799767,1694.3598392117,1693.8064188842,1691.8155141914,1693.3367985025,1179.9188459491,1693.316494588,1696.379781215,1684.5007174548,1783.9298069477,1435.8977230924,476.1470028894,1538.0350878394,1712.5306701322,1639.3256119836,-1925.9813380027,1691.4293895239,-1937.3888964309,1687.5088090223,1687.3852397732,1694.6934571284,523.0837939092,1872.6652141763,1692.6494677212,1690.9627739509,463.4932969684,1693.4987545659,1178.8565289886,1693.095044726,1696.0914659827,1689.8936320378,453.4170619931,447.807104771,1685.0385571694,1538.6246979374,1707.8558456151,1641.9990842868,-1922.9063691741,446.3131960977,-1692.9884859086,1691.7988956805,1690.9104994904,1695.2953751758,492.9681273426,1879.9891659579,1691.3317630663,456.8846654362,1692.0172773352,1692.5966855755,1179.2333483624,1691.2250436682,1691.0523757736,446.5965166153,448.1889206644,447.4978584543,1680.2021141098,1567.5965152689,1710.8390606757,1645.260923532,-1933.5501172838,1644.8701797989,563.9631585868,1924.032284419,1689.2219801127,1690.1253963149,1689.15633157,1691.9358132892,1146.7110089399,1687.9934204711,1690.1776990792,1689.8291590058,1778.735665188,1562.3715964394,1682.3361099182,1530.210408141,1731.5807913416,1635.3517611951,-396.3635135199,1692.1395202949,-1689.9370404079,1687.0407048655,1686.0498870738,1692.3929026348,552.5397018003,1873.1317050234,1691.6668715877,1692.028119342,1689.7698782341,1692.0968644781,1145.5335429207,1690.0096534812,1689.684197146,1688.9224387565,1778.0656861258,1573.739063647,1682.2924591702,469.7298887281,1727.101382232,1633.3834228242,-1931.9077568679,1692.0287976552,-1690.3973168787,461.2027776729,1687.6412612553,1692.1109125773,521.9132641752,1872.8750230023,1691.8749616574,1692.0850890088,1691.1733565856,1692.6110925802,1178.0069202302,1692.7171651307,1696.198872637,1683.5748624207,1783.5914816339,1430.4460913916,474.1850810527,1537.0930597365,1712.2938721708,1637.0407440188,-1929.0730341403,1691.5348675146,-1939.2221175968,1688.0758569339,1687.9583653276,1692.4639113032,522.2301896236,1871.413850369,1692.5013192397,1689.4756349932,469.993804675,1693.1042639637,1178.3669791002,1691.6579337737,1690.9372649492,1689.527178751,460.6757781805,448.2934185854,1683.8816695351,1536.2196244129,1706.7829601664,1639.2514979602,-1920.073110166,447.1984263989,-1692.4350359657,1688.6772109556,1689.9276251963,1693.6608878981,490.5679690315,1878.6818807394,1691.4055046176,465.158981437,1692.7440094334,1692.0240154822,1178.3121639506,1697.7050893983,1689.9331069967,443.694206175,458.8998372741,448.0408991184,1678.124212889,1569.0429137233,1709.2003944259,1643.4337274867,-1935.2527406059,1645.7427809338,562.2822381076,1875.1917024951,1689.3965569368,1689.6929625069,1688.8606801757,1691.2766573578,1158.0741135959,1688.3285255322,1691.982569233,1691.4715205686,1752.4520610592,1564.7031908827,1681.7678930391,1528.8780107915,1702.9715642912
   1635.763596683,-437.7369131112,1691.7832535451,-1689.0726268259,1686.2334443365,1688.3363332144,1691.966638953,550.9014735325,1909.7907950895,1690.6269668748,1690.8018322246,1689.4338768232,1690.7089868024,1157.5721999741,1689.220055599,1690.4413677942,1692.1040063719,1751.8755491916,1575.9505157071,1680.3877504337,514.7413154103,1698.3917014853,1639.0055417872,-1866.8330077956,1690.1228709884,-1691.7144260359,532.7545095247,1688.2051502409,1692.1546706132,519.9837485936,1923.2811936676,1689.3980794095,1690.1518442103,1689.5837304266,1690.0737588988,1188.1045352338,1690.9371905051,1692.0813553645,1691.1433188503,1751.4759929303,1435.378282058,543.9435743097,1540.4698438682,1701.4712634008,1641.5891488064,-1873.3759158352,1691.4157888031,-1851.8476981957,1687.6465783952,1687.5423248884,1690.9510761916,520.2419719728,1923.4917216671,1690.2626218115,1690.7976262275,525.9306908426,1690.8495883748,1188.4403769431,1691.0849549481,1689.5926819976,1691.938943872,530.9390888637,512.4914288686,1677.0624201134,1541.6156068823,1700.6727078816,1643.4067757617,-1879.0239868379,512.9718939494,-1690.1150931972,1687.5790895545,1688.153887862,1691.7598653776,488.1159058597,1913.7809572665,1689.1985450731,536.3528754592,1689.3475387987,1691.3798844895,1188.9331273891,1695.9942678866,1690.0986651364,531.7246373338,512.5183892717,513.6274014844,1676.5379179156,1578.1881445424,1701.6238274383,1647.7705617376,-1863.4461868802,1642.531672626,721.1255462576,1372.6644150808,1610.5127603867,1610.8302426114,1611.4171278855,1609.1480362171,1499.240059024,1612.25873046,1607.8239197189,1608.5391953194,1518.4026403903,1638.8934331616,1614.6511090119,1612.0665702792,1572.0375509252,1647.4429064257,-937.3304674746,1608.5430007378,-1610.4251372021,1613.9754027431,1613.4919072136,1607.9254211469,730.7148961187,1425.081246808,1609.9693577657,1608.468765087,1609.8633088339,1608.6783205744,1499.7346398,1610.715629899,1607.7428743113,1607.5806238282,1518.5009975826,1629.0264076348,1614.7556161648,998.1200632309,1577.3656541569,1652.1221589376,-1363.3159394317,1606.7613029897,-1608.8399133923,1018.8640931741,1613.5021068566,1607.8087120261,699.1514249139,1423.6599358899,1608.2575185216,1609.1734394736,1610.3377676503,1606.6993288972,1529.1636455622,1608.9243682283,1605.1634439038,1610.1104566526,1517.8923648374,1588.0825111137,991.2142428232,1603.1648495799,1588.0435530948,1645.5846948698,-1372.1249604596,1608.0129602573,-1361.4759988252,1613.7507007463,1611.1733356075,1606.3571609537,699.846347385,1423.5979114243,1606.7504400986,1607.5110347415,999.2230471923,1607.1398700506,1529.6120386659,1610.5777653062,1604.9584068049,1606.7094775934,1018.6086439581,1021.3590028685,1618.5143522118,1602.3087479939,1594.4463362879,1643.1914517191,-1378.0471694048,1021.535329068,-1608.1057368769,1612.4342337678,1610.8775089403,1606.6683532493,669.3502124081,1422.9562403911,1609.2394686952,1010.7092612548,1608.2567211916,1607.8491840018,1528.9112652477,1609.6010929991,1606.5065370082,1020.8088286547,999.8699041998,1020.810899694,1620.3319365415,1633.152905527,1590.626515156,1640.749812482,-1361.6590532188,1640.217110937,566.5531404092,1909.2699490418,1685.6619285638,1685.9601731285,1684.4461936922,1684.5827347524,1149.9836147035,1683.4569247762,1686.1348007543,1685.838913182,1770.8652662034,1575.806257093,1680.0411943381,1533.4119426811,1722.510451661,1629.6193661123,-409.4348712494,1685.2733389996,-1684.2518753631,1681.2858812554,1681.7198114352,1685.6400786154,566.5561681388,1868.5937588741,1684.0230248197,1684.0444676774,1685.4754701937,1683.9305723567,1150.1008620637,1684.4661027971,1685.726893994,1684.9572320604,1770.3363059314,1574.5231716957,1675.3579308762,530.4491216004,1716.0224968647,1627.0934435508,-1910.2248400609,1685.7808215459,-1685.1221232737,522.4289946987,1681.9191083846,1686.0574839992,524.8887849825,1868.1367486997,1685.1318898121,1685.531655688,1685.4584935701,1686.0853339725,1181.0246093678,1683.7302043773,1685.8294090636,1686.3310903659,1770.3785898372,1442.6080347775,547.9149690537,1539.1284816287,1699.1447229387,1629.2710742081,-1897.7480422167,1686.2005316403,-1859.4704314128,1682.0482328185,1681.9936479086,1685.7571945394,524.7033881698,1866.8978351288,1684.1328738964,1684.6229565166,538.3727397617,1685.6937318435,1180.512627366,1685.730205709,1691.6749179802,1685.5435445269,521.9917273987,521.5107211814,1674.8227056394,1536.392304486,1699.6324342069,1633.553138942,-1893.5899955976,511.0278399972,-1685.257237598,1684.3880765862,1684.76366681,1689.7806016917,493.9175092593,1869.2966203518,1686.1874421465,533.2149497355,1684.6488439379,1684.2173822585,1176.260943825,1685.6330476033,1686.5958387817,524.820954354,527.4542251405,522.360880364,1673.432817131,1571.5099576203,1699.0334429574,1637.307776709,-1870.0690340763,1638.7251225898,560.326169388,1900.7784088998,1687.5205853182,1689.7487575482,1687.0258646519,1689.0354105814,1164.0149175789,1688.0718994162,1690.6522766418,1689.3835499472,1771.9152799733,1566.7528074498,1681.7048997881,1526.3226049117,1717.6710851465,1630.6069280554,-402.3570612362,1691.3867832039,-1688.6849769008,1685.8140207477,1685.8924269662,1691.0472721751,549.3363234689,1908.7499516341,1689.0725771658,1690.0743479313,1688.5650098543,1690.2010712592,1164.6528791596,1687.3546897225,1689.8233754755,1689.9176137366,1772.1960711248,1578.0048654707,1683.3017426924,474.8503075438,1714.8249365779,1633.6814107516,-1906.501927289,1689.9256092974,-1691.7108497032,476.306599481,1685.9504338695,1691.724752627,518.7244107017,1905.3091551621,1689.0254240333,1690.8229297797,1687.8440661686,1689.2903415095,1195.7536765018,1690.6806308685,1691.2037885431,1691.462063592,1770.9063160935,1434.9771949008,485.4944661944,1539.7391671077,1703.4213346327,1641.7797889762,-1921.0294889861,1691.3770268845,-1920.0180906476,1685.5886929697,1686.3988808511,1690.4928402197,518.66310573,1904.4591191175,1689.6788060627,1687.9159316948,462.6318742669,1690.4693643633,1196.5274829563,1689.5919404374,1695.5185489437,1690.9936603967,476.859070373,464.3854713566,1677.607084286,1538.2362673719,1701.5966883543,1644.4387437848,-1906.8554076187,464.4255352631,-1688.5672854786,1687.2115115531,1688.1920343644,1689.8610769966,488.2774233721,1903.7046466798,1689.4586904255,471.4153395939,1689.0508726469,1690.7443067884,1196.6641283562,1689.1399433258,1691.0917751276,463.1091852703,462.3201219122,463.4078613287,1676.2867655915,1569.8872141189,1705.6202256238,1649.0055862823,-1919.9347344384,1643.5411607469,559.6351695014,1915.7611726811,1687.1600354101,1688.7879690597,1686.3084140477,1688.765452626,1143.2006849772,1686.9872284366,1689.7872758845,1689.830582514,1775.9220100116,1556.7103765244,1681.8378752174,1528.1256793981,1724.0743039408,1633.2296557779,-405.2641806744,1690.8782991675,-1687.2733392749,1684.9183334452,1684.5555065017,1689.773121937,550.3248727118,1884.0311578401,1688.6471836576,1688.6617041338,1688.4406448715,1689.9072599203,1134.1651116815,1687.4796088444,1690.4666568108,1689.0466780295,1776.2530345011,1566.7169852751,1682.7203415312,467.9733929621,1718.2100679096,1630.0991148677,-1925.8100336093,1689.7126051955,-1691.9855187779,455.9209924716,1686.0294477915,1689.7540248463,519.6369429046,1885.1453831146,1690.0424206445,1688.9269123423,1688.7023093866,1689.1621870235,1164.9521010594,1688.9141944814,1691.5284802026,1690.843981766,1766.7690992602,1425.3019420771,476.3369894882,1529.5004001901,1705.0055233757,1630.928320992,-1917.1706517269,1690.083074286,-1927.5619989645,1684.8580849361,1685.5585327243,1691.2928591761,519.487332604,1883.2860758729,1690.4328787102,1689.1148651384,467.989457703,1690.76970547,1164.3145239219,1690.3320637933,1695.0178511128,1689.278005862,457.4333448774,446.5256053857,1678.8634648459,1531.0363588775,1703.4821319551,1633.3392103334,-1910.9678572838,446.7668376469,-1689.592607986,1685.6537048176,1687.6679707896,1689.7237286714,489.0844226992,1884.6424567217,1690.7896171657,454.5143424393,1689.747795643,1690.7842502033,1164.531040743,1689.0688327034,1691.3308347258,455.2353027917,446.2665270257,446.8854935065,1677.4002119232,1563.9386318851,1706.3606610598,1639.4600057158,-1936.4245731414,1642.0534642915
##end
biasActivation=0,1,1,1,1,1
[BASIC:ACTIVATION]
"ActivationSigmoid"
"ActivationSigmoid"
"ActivationSigmoid"
"ActivationSigmoid"
"ActivationSigmoid"
"ActivationLinear"
