encog,BasicNetwork,java,3.3.0,1,63630910515998
[BASIC]
[BASIC:PARAMS]
[BASIC:NETWORK]
beginTraining=0
connectionLimit=0
contextTargetOffset=0,0,0,0,0,0,0,0,0,0
contextTargetSize=0,0,0,0,0,0,0,0,0,0
endTraining=9
hasContext=f
inputCount=105
layerCounts=3,33,33,33,33,33,33,33,33,106
layerFeedCounts=3,32,32,32,32,32,32,32,32,105
layerContextCount=0,0,0,0,0,0,0,0,0,0
layerIndex=0,3,36,69,102,135,168,201,234,267
output=-1,-1,-1,0.99999999975787,-1,-0.957790095251993,-0.999999999106501,1,-1,1,-1,-1,-0.999999984656248,-0.999999999998706,0.999999999928282,-1,0.999999996033943,0.979292043957854,0.811352251212648,-1,0.999999985372895,-0.999999999999795,0.999999999999939,-0.999999999999012,-1,1,0.999999999999798,0.999999999902704,-1,0.400086241343117,0.914767627284944,0.99999999999432,1,-0.999999996678332,-0.999999999869346,1,0.999999999553706,0.99999999990641,1,-1,0.999999999991961,1,-0.999999999999992,-0.999999999371253,-0.999999999997591,-0.999999999586185,1,1,-0.999999999973474,-0.999999999999964,-1,0.999999277852751,0.999999994595884,-1,-0.999982556706239,-0.999999999993697,0.999999998965474,0.999999999988662,-1,1,1,-0.999999248756998,-1,1,1,0.999999999999962,-0.999999914652339,0.988448290985392,1,-1,-1,1,0.999999999999926,1,0.999999999999969,-0.999999999999999,0.999999928923616,-0.616212882757066,1,1,-1,1,-0.999999999999978,-0.93524386446438,-1,-1,-1,0.999999999793245,0.999999995738682,1,-0.99999999999997,0.999999999999992,1,-0.999999999999972,0.999999999999994,-1,-1,-0.999999999978892,1,-1,0.999994638901704,1,0.999999999999992,-1,-0.999999999998097,0.999999953183166,0.999999998999888,0.999999289505132,-1,1,0.99999999999823,1,-0.999994623215994,-0.999999997755443,1,1,1,-0.999999999997299,1,-0.999999999619265,-1,1,0.999999999999948,-0.999999971834739,0.999998756518955,-0.969993342609542,-1,-0.999999999999241,0.999999998902917,1,0.999999999900536,-1,0.999999999986773,0.999999999730659,1,-0.998261610568128,0.999999999697934,-1,0.999999999689948,1,-0.999999999960209,1,-0.99999999676568,-1,1,-0.999999999999998,0.99999999998679,0.999999999999972,1,0.999999999998939,-0.999689326229274,-0.999999999985125,-1,0.999999999999933,-0.999844831628865,0.999999999999998,1,-1,1,0.999975402756281,0.999999999955146,1,1,-1,-0.999999999999998,0.999821118372554,-1,1,1,-1,-0.999999952360223,1,-0.97329267450243,-1,0.999999999999933,-1,0.999999999998101,1,-1,1,1,1,-0.999999997073742,1,1,0.510122410699149,-1,1,1,-1,-0.999986734126728,1,-1,0.999999999999982,1,-1,-1,-1,-1,-0.999999999999998,1,-1,1,1,1,1,-1,1,1,-1,1,-1,1,-1,1,1,1,1,1,1,1,1,-1,1,-1,1,0.99999999999968,1,-1,-1,-1,1,1,1,-1,1,1,-1,-1,-1,-1,1,1,1,-1,-1,1,1,1,-1,-1,1,1,1,1,1,1,-1,-1,-1,1,1,-1,-1,-1,1,1,86.5861960000166,3562,41.1,40.96,41.54,40.91,34999850,41.94,42.138,43.1604,43.7074,0.7164,49.8999,11.0815,12.5217,12.4229,0.0939,41.6749,-41.581,42.5027,42.117,39.4173,100.609890000006,3896,41.46,41.42,41.69,41.04,24699710,41.0112,41.6645,42.7104,43.5516,0.7394,49.9822,12.7443,18.7149,22.6009,-0.0296,41.2972,-41.3268,42.9115,41.5907,39.9285,73.8264750000268,3630,41.25,41.48,41.62,41.25,25722630,41.075,41.647,42.6622,43.531,0.6902,50.4368,13.5285,16.2196,23.6444,-0.029,41.3338,-41.3628,42.9613,41.5657,39.9987,140.327450000014,3211,41.63,41.72,41.95,41.41,27856770,41.17,41.6539,42.6252,43.513,0.6702,50.3875,11.7671,20.6227,20.4918,-0.052,41.411,-41.463,43.181,41.6007,40.259,89.510654999999,3654,41.4,41.76,42.06,41.39,30270750,41.3081,41.664,42.5913,43.4956,0.6701,50.3479,11.0097,20.0616,17.7595,-0.0424,1
outputCount=3
weightIndex=0,99,1155,2211,3267,4323,5379,6435,7491,10883
weights=##0
##double#10883
   -0.277559776,2.3531744013,0.1933911042,0.1625576724,-0.6570861006,1.1583513765,0.189291163,-0.187323087,0.913518212,0.7821500933,1.4431031664,-0.4694305155,1.8834235165,-1.5128938439,-0.0734504312,0.5852852082,0.3815284696,-0.9067775757,0.3401319598,-0.3444542282,0.2748482045,0.8631621941,-0.8379910879,0.0419458938,-1.7274782425,0.4861506307,-0.0059739753,0.1178892736,-0.9590361304,-0.2001420844,0.1087515304,-0.4444789383,-3.7388108758,-0.8918708685,0.4454951618,-0.1822015916,0.3533813629,-0.4091912791,0.2339782007,-0.5293120304,0.4476476303,0.3173282682,0.2306371953,0.6931906693,-1.0826343261,0.6248221445,-0.669449002,-0.3507769032,-0.4547720092,0.2336221098,-0.2584179209,1.215395836,-0.8370894823,0.8954502734,0.6053519602,-0.7586432883,-0.9278339458,-0.2910846636,0.0396977117,-0.3046489329,-0.1704980477,-0.9675170091,-0.9121871471,0.3563867249,-0.116823115,-4.8033157098,-1.1877495029,0.9075317873,0.3552909464,0.494087055,-0.2186082039,1.0292641788,-0.2914340305,0.5818117967,-0.2270239334,0.0610939771,2.3880696843,-0.9031838466,-0.0558067831,-0.6521929572,0.5931640298,0.0650552884,0.2242981064,-0.3660518405,1.3518333908,-0.7259155254,0.7562459698,0.1216155166,-0.5529609462,-1.3149993469,-0.2955811222,0.3802811989,0.9976878037,0.0038739377,-1.0710700566,-0.448640484,-0.0167572327,0.1970107612,-4.7506060771,-0.7377121508,-0.0161142974,-0.4981614262,-2.5078745199,0.9450727065,-0.6933587332,-1.0853747166,-1.5621707874,0.8100472833,-1.2885455556,0.6250570851,0.7138180194,-0.8084678374,0.6298200417,-0.8174337782,0.2731666225,-0.7213203056,0.1473870595,-0.9355941165,0.5465836594,1.238938117,-0.0258433925,0.8717437579,1.4165723734,1.2375029446,-0.1207332715,-0.9915630443,-0.7818820026,0.8490232131,0.0802999848,0.6528933294,-0.2601587946,1.3101762503,-2.0341262759,1.5248792417,-1.2643730231,-0.4084113341,-1.2742771118,-0.7007430863,1.8989818766,1.0319205126,0.0992866759,-0.1471087423,-1.1219416532,0.0540238919,0.1570310991,-0.1861328607,2.6093873633,-1.9667290289,0.9232693563,0.5665120492,0.6410826814,0.0602126393,0.3532762782,2.0967211192,2.5414143878,-1.615240673,-1.5415918692,0.4027571212,2.8744100965,-2.553066941,-1.6701066925,0.7020204023,2.9017090101,-1.1818603755,-1.5826117287,-1.2771443172,0.2883665529,0.2594932112,0.0876008411,0.2135123888,0.1920342647,-0.7547472187,0.2977023159,-0.8746410987,-0.4452709003,-0.9631420131,-1.3340244524,0.1155650729,-1.6292183232,0.0408301172,-1.0693682179,-0.0968207573,-0.33324049,0.3240788715,-1.6833012046,-0.75932849,0.3031973724,0.3167274829,-0.4103260462,1.5052827672,-0.7119373633,-0.2235519385,-1.2039350384,-1.0128049023,-0.5559866851,0.0053554742,-0.1194510639,-1.347447047,-1.6926472641,-1.4365362099,-0.0060119217,0.2894092561,-0.1167010985,-1.8410511105,-0.1528146598,-0.1528321438,1.9857797135,0.4492560617,0.6766923563,-0.6758401215,-0.7796338895,0.6475037489,-0.8367015042,-0.5094658024,0.0409054667,0.2691203515,0.3967789743,0.3226390354,-2.0657902977,0.6429703037,-0.2256703573,-2.0474653005,0.0653910452,-2.0678118605,-0.571115596,-2.0755527265,-0.0323749421,-1.215280808,-1.0195325388,-0.0761764881,0.1539122634,4.0847730615,-1.8067585571,0.1412017794,-0.058845178,0.746931895,0.4066581706,-1.588835724,-0.3208722504,-1.0647815319,-0.5270182674,1.0023536504,2.1158391501,-0.4344536949,1.2014537,-3.2582124658,3.3597999371,-1.2632034164,-0.9507812194,-1.3843955607,-1.1104058404,-0.3362649941,0.7186985964,-1.2856097417,-0.1825966543,0.8127137611,-2.6444273753,-1.9973468846,2.0317200007,0.4696981114,0.7371807764,-1.0592595465,2.4983202689,1.6747956316,-1.5946657261,2.072533226,0.3996004306,0.1236776671,-1.0948166011,0.372259555,1.3335263405,0.9713084813,1.3433301216,0.3058974907,-1.4169948102,-1.6710057337,-1.8865021265,-0.130208687,2.8502846494,-4.1316652092,1.5376889901,0.173987975,1.6817965186,0.5272024182,1.1285260269,-0.2003745074,1.7739661243,0.2794046595,-0.787446382,1.5251685821,4.3377891235,-0.6077821817,-0.0032350674,-0.0465406055,1.5885156895,-4.3830766343,-2.8143476964,3.7162049348,-2.0210045772,-0.2637331242,-0.4565147976,1.0472988205,-0.9407539697,-0.0465220913,-0.3231187287,-0.0272069453,-1.6059300367,-0.1572771801,2.281058384,-0.0238199882,0.7873469348,-1.1403221084,1.9083313147,-0.7900968301,0.6915698985,-3.0065462575,-0.396181954,1.316307127,-0.2179701562,-1.9860487654,1.6159559297,0.305098529,-1.829212415,-0.7528019046,-0.7330212103,-0.4585356729,0.7997976853,-1.0451871544,4.0832771011,0.7891236661,-1.3417256777,0.0452082379,-0.5842548085,0.0046053382,0.0863514392,1.391480836,1.9914355409,1.3469854939,-0.6082497173,2.2796619443,0.2367170536,-3.193827974,-0.8289915574,-0.3924668058,1.4940056515,-3.2288210951,1.9333262261,-1.158405901,0.7579234259,0.2116558505,1.7342540106,0.6783912191,2.5120247621,-0.0415579321,-1.8817497068,2.1572014231,2.4974460821,-1.1850661381,-0.8075674929,-0.012875737,-0.9840805025,-2.2897456739,-1.7051323276,-4.5249040396,2.1749277854,2.6855456218,-0.5194161004,1.1999173946,-0.4787549613,2.1671811389,0.9115668688,0.4079336223,0.8199394178,-1.6428081323,-2.2837565451,0.3905641405,-0.2625806263,1.7904249112,-0.9504724523,0.4659847906,-1.0360063137,3.1169667324,-0.8266253801,0.1616758307,0.64085123,0.4661153183,0.1848130416,0.1951736787,2.2528756809,0.879329955,-1.6046799082,-0.7644431218,-1.3633347128,-1.6298711477,-2.7911637252,-0.7763181539,0.325245222,1.2090150038,0.6408617951,0.9794546675,1.343684875,0.6852760745,-0.2110833892,0.4488855364,-0.3218857712,0.7997928946,-0.0757963617,-0.9297591114,1.4041756916,0.7431401471,0.6592815261,0.2608696671,0.4186059664,-0.0665327582,-0.8515719355,-1.1235381374,1.1337526999,-0.5234939617,0.9130662129,0.5507030137,-1.89549426,1.1962272051,0.8264326994,-1.5088913613,-0.9537839975,-0.5142932063,-0.6881845607,-1.9457542791,-2.8784026562,0.5803601889,1.0141114774,-0.6334767753,2.9501427604,-2.0287038777,-0.2774023814,-0.1349862918,-1.7807967597,-2.6735007349,-1.7305506332,0.9903855116,-0.7900743123,0.6022760167,2.3223198969,0.4914205969,0.2476112434,2.1860543438,1.756760487,2.0675440955,-3.2460894262,-0.4423749356,-2.8322244097,0.4865426028,-2.5726613373,-0.6202033887,-0.7228882639,-2.0206946382,-2.0150329294,-3.367577381,-0.7118336046,1.8189085812,0.39668783,-2.9660890367,-0.6368654328,1.8630125672,1.8286821255,-2.8959403361,2.5509929564,0.2030633179,0.2131733504,-0.6447354157,1.6090453124,-0.3510724382,-1.566202948,1.9755933069,-1.9199289042,-0.157663705,2.1232289018,-1.7630215702,-4.1676444492,-0.4519392383,0.4072603526,1.3500840312,0.991224484,1.7535264818,-1.1025395668,2.3333945587,1.8684773277,1.2597382804,0.8354104332,1.7310623115,3.2296456802,0.9896172752,-0.1924139281,-1.0701688032,-0.0193377816,-0.8502918358,2.333021073,-1.1211242966,-1.0214757864,0.4968325841,-0.6043543767,0.4556533635,0.4998132447,-1.0498642486,0.3938496905,-0.7273722184,-3.4813152013,-0.5477444392,-0.7078819964,2.874469335,-0.1683973348,-0.5471726174,-0.7569899537,3.5718661645,1.1479416199,-1.1269331865,0.1142290746,0.7182409842,-0.1933404452,-1.1808994507,1.5167544067,2.7543698945,-0.68579167,1.8509508746,-0.049244325,1.4356433619,-3.4151705112,-1.5760747375,-1.5210614806,2.4165702261,0.5152578926,0.4996880634,0.0844690811,1.5920235712,-0.0571832559,-0.5881057381,-1.5177114255,-0.468634354,0.9170145769,1.0576128886,-0.528066065,-1.1525741665,-0.7823427575,0.0922918446,1.8176917651,1.0378294122,2.1221576765,-1.2517530419,-0.4144238759,0.745163509,1.3208202404,2.3049254509,2.3453925809,1.518328367,0.1085212682,-0.1084981619,-0.3045090045,1.7763703679,-0.2093813091,-1.9749834732,-1.2932470016,-0.424665913,2.0247684783,1.6884532952,-0.375736958,1.9095189866,0.4703090203,1.2007070407,-2.899575349,-1.3705797608,-1.2913072628,0.3748411579,0.5972247525,-2.041423052,0.0384047765,1.7689063321,-1.7344336131,0.8014372635,0.9176618582,0.1558426952,1.158962265,0.984417474,0.3658914938,4.2587161198,0.2844760971,-1.1405046259,0.3220861734,1.167836393,-2.2396336991,-0.0886826028,-0.4761787076,-0.9546556429,-0.3263786687,1.2611993494,-1.9434560047,0.6862653981,-0.8309165127,-1.9727595473,0.3836768607,2.9604826268,1.1984860078,-1.2214050988,-1.3179758883,-1.7066090244,-1.1916906619,-1.2046662727,-1.6114853279,0.1804192011,0.7224583903,-0.767291249,1.5865579676,1.106389078,1.3705908126,-1.1603976505,0.1537153452,2.1098600486,0.7295951933,-2.2359608084,-2.6420797042,-0.2873499011,0.6577060388,1.0204842674,-0.3704840322,0.9066611388,-0.1188324073,-0.8580109912,-0.0732795433,-3.0956337526,0.6960053473,0.6539647645,0.3520712829,-0.0664067954,1.4558639963,1.608638542,1.2901560367,0.1183182623,0.2870351398,-1.2146331271,-3.2840323303,-1.4877101176,-0.4782749697,4.1711542349,-3.0563722959,0.9241809277,-0.3150156849,-1.3834226492,0.114066646,-0.0142988793,-0.7551136656,1.3595543123,0.6525749681,-2.2421441814,-0.2281503394,3.0485403916,-2.1916961483,0.147375154,0.8274564336,0.7232600282,-2.5554920663,-3.5307714219,-0.4163016633,1.1280251792,1.3944801317,-0.5562687611,-1.6197241058,3.6477693241,-0.1577249553,-0.0408953918,-0.3022736456,0.008167383,-0.2538607833,1.1793557214,-1.7933126358,0.309192379,-0.2458303658,0.6170300044,-0.9185675521,-1.2582926841,1.7876178774,-1.1693863026,0.4073445541,0.7066523388,-0.3620283569,0.3102157419,0.1620747685,0.4045470163,0.2150028687,-0.0532285067,0.3874984508,0.0029532831,-0.9690763316,-0.3195838019,-1.1296493573,0.0560602009,1.0324600487,0.6020280164,-0.2595905569,-1.9493304325,0.0364909035,0.7874473087,-1.3375485615,-1.5786392345,0.6611945262,0.040470819,-0.321703609,1.4315556682,-0.4221919889,-0.1314136976,-0.6288563683,0.6825491192,0.8167541413,2.4136630887,-1.0509381896,-1.7308541008,-1.7212721341,1.3958222426,-1.4642439377,-0.9062744546,-0.8017981522,-1.0091441646,0.8536688481,-2.9160535007,0.5796178472,2.2948150751,-1.70570325,-2.3028595204,1.7486685169,-0.6311019125,0.2480337019,-0.2000523307,2.1270927775,-0.6715847448,-0.9878298861,0.6388183011,1.3496292549,1.1296318155,-0.5102939483,1.7771276762,-2.0800992077,-0.0880092854,-0.4872592918,-2.128959836,2.4080603724,-1.2013868337,-2.4510902526,1.123671337,0.95125733,0.704904922,-0.8357233705,-1.0488542043,1.4375622927,1.1638474404,1.1230574273,0.3966849753,0.0219894564,-0.243917721,-2.5966271293,1.5295197084,3.062773153,-1.6380652007,1.7936652898,-1.1184607961,1.673774857,0.3095200402,-0.652843587,1.9102024103,0.5779181046,-1.0066301462,-0.3347228768,0.5086178864,-1.4502909334,1.1430036029,-0.3327351961,2.9412019346,-0.8452833477,0.6357046083,-0.3939068923,-2.1478673454,-2.2850353429,-0.695790283,-0.0424096591,1.3176546154,-1.0306024868,-0.8629117117,-0.168694319,-0.9254764581,-1.7021812115,-2.5560220443,-1.3028188409,-0.4009969899,-2.0708740757,0.0965624977,-1.3885614432,0.1228194477,0.1536209357,-1.6184514108,-0.0310780419,-0.040285697,-0.6989109858,0.5422419376,-0.1149594434,-0.2051137921,-0.5328226299,-1.5119810696,1.0925944902,-0.6045677653,2.03756837,-1.7989115831,-0.2724303485,0.5081430134,0.394849864,-0.6988574102,0.7352558505,-0.4328722485,2.5799196322,-2.4444925619,-2.3013416886,1.3862651888,1.6423562203,-0.5561489217,-0.4138823027,-1.24147479,0.9544418405,-1.5582600693,-1.1040542994,2.8406218883,-0.7799102071,-0.298313675,0.5378358756,0.2284537309,-0.3110912017,-2.7872619854,-2.2014333976,-0.2782740193,-0.4355006712,1.6213616719,1.6047869153,-0.9580631384,1.1860985889,-3.4224746171,2.6419471142,-0.9889275738,-0.0472187373,-1.855170498,-0.7259622279,-1.1020838098,-0.1819398199,-2.7210417957,-1.2362933741,0.4950204761,-0.8095184887,-3.011435913,1.8056454361,-0.5283600419,0.4123511788,-1.0833322728,4.8796164588,2.0502020595,2.3242850584,1.4971668434,-0.3095319172,0.0541915996,0.0507956635,-0.9889279677,-2.1565579252,0.6068842025,1.4853708777,-0.279480911,0.0713055616,0.326116177,-0.4153577346,0.3611689214,-0.2375171224,0.2169010149,-0.9404404509,-0.2292426646,-0.174263559,0.1687824997,2.762872821,0.4115754154,-0.0325790984,0.1739238158,-0.4157735994,-0.5817576364,-0.5253583526,1.5583571735,0.5871279431,0.3798491194,-1.5621291807,1.2157857686,2.5368917623,0.912149888,-0.4053842604,0.4095955443,-0.426987512,2.1768818741,1.0192416553,-0.0736343244,-0.1234323622,0.7517536021,0.7138259902,0.779753389,1.2027088361,-0.4575359122,-0.4881135463,-1.9515094518,1.0921023206,-0.734115319,-0.6475570018,1.4444914357,0.8356780521,-2.5770724221,-0.7574794122,-1.3113694328,1.8354316518,0.1362397292,-0.6598714289,-0.4563885502,0.6864823703,1.3530626476,1.6641988799,-0.7160852005,-0.3014460372,-0.1893901704,-2.7742530181,1.5220619579,0.3065666725,-0.055432038,-0.1117044805,-1.1867093348,1.317250151,1.5238220538,1.5070538835,-1.3622427983,-1.2764117141,-0.4056074507,1.4510830896,-0.9657115051,2.4570268693,-2.2296567849,1.7485611752,0.160931751,0.3781325434,0.0598081706,0.3126505349,0.3354958215,1.4696779572,-0.8152347307,-1.6625531363,1.7212140336,0.6298324051,-2.435923135,-1.0321166641,-0.6130942474,0.1282713478,-2.7122835474,-1.3769947465,-1.8006470906,1.783348447,-1.1386399837,-1.1854733826,0.0777030403,1.9006473952,1.3550112617,0.0410136507,-0.9679066677,0.6672034592,0.5153347835,-0.2823513786,-0.8900774735,0.7186970367,0.2184961181,-0.6926241403,-0.5480024394,-0.6777239902,-0.0021584645,1.6110205965,1.4262392979,-1.67052668,-0.8716050803,0.1838005919,0.5000427997,-0.1336089438,0.64877223,1.9956334981,0.9524268832,-0.3310500092,-2.2656876149,-0.7717704103,-3.4187557052,-2.8402294083,2.4481219075,0.6325463577,-0.8232005249,0.418702057,2.4453756085,0.5819438292,-0.2263468935,0.3205076828,-0.7925156034,2.1143020179,-0.4273111585,-0.6474793376,1.7582298068,0.9952540055,0.2368158249,1.922401601,0.4717412012,2.6425460412,0.6663877226,1.5536119981,1.255412695,1.5313336317,0.5568303749,0.7121119959,-0.2805186715,0.5534399789,0.5055462152,0.4294416487,0.889687093,0.3293576237,-1.700794215,-2.5355998163,0.8880426252,-1.8037360335,1.9578934397,-0.4673072412,1.4998131178,-0.3451475014,-1.8176080248,0.8345677943,0.8153973307,2.1808479461,1.0287887496,-0.3701292752,0.4048950709,-1.472361665,-0.6268097737,0.2324626573,-2.041505069,-0.5300853105,-1.3839327108,1.7396994631,-0.9613080703,-0.293562527,-1.0268062874,3.1839257318,4.0310135035,-0.0684828097,-0.8659887623,1.4366622495,1.3254491364,0.6844871774,-0.0743640227,1.0470224964,-0.552766184,2.1309023446,-2.8569579662,0.3762997796,0.0905281676,0.1106292514,0.1730602591,-1.1468105121,-1.0633391059,-1.6347359532,1.0441098099,2.0100463142,0.0516597911,-2.127649633,-0.3046251044,-1.9201531436,2.5081501774,-0.5021585023,-0.3189793353,-2.5421097785,0.4544620802,-0.4950506807,0.7425432253,-0.1225705017,2.5890570945,1.6745717747,-0.7318130627,-3.0349116713,1.6796662065,0.9498240431,0.133222105,-1.5135483855,2.3001935514,1.4000282115,-0.3779360289,0.1805451746,2.8539984559,0.2771040778,0.7538755894,-1.5342339146,1.0899394311,-1.5786225891,0.8678989367,0.180638026,-0.3741121193,-1.920784966,0.7134334745,1.4468965717,0.535885343,-0.9454616028,0.8192236336,0.5789982864,1.6060722263,-0.4109012908,-0.8991334426,1.5477235751,-0.6982276702,0.1485641915,-0.0908463538,-0.0437540325,0.2909077687,-0.9385186274,-0.512921782,1.184135494,1.8737927176,-0.0284597419,-3.2439268257,-1.4464763755,1.4159323795,1.8448066179,-1.6459673035,0.2865395897,1.5882938121,1.4087033086,2.3772000799,0.8236377191,1.6222943435,0.3274680342,-1.6423671148,-1.3686707632,-0.6975902342,2.2308350286,-1.3442349298,0.5699654937,-1.3280871445,0.7812656253,0.9113341491,0.8794488226,0.6675282554,1.4431309353,1.9985158929,0.391129798,4.298644504,2.8770429078,-0.9588161686,0.8044694524,0.7320503109,1.2597262258,-2.9753300775,0.0943797151,-3.7527243311,-0.9304100897,2.2827573975,-0.8587263976,4.0115744616,1.7575755179,-0.1348808599,-0.8679409631,2.0402702649,-1.7023618615,-0.0748477439,-3.1307006916,0.4295321493,-0.6021408305,2.4068913043,-0.1651110782,0.2571034557,2.2914710544,-2.1543450103,0.3318722579,0.8848100849,1.1688240873,-0.1233608846,0.548725251,2.279574668,1.8632292435,0.5510393845,-1.7914205022,2.0186847052,0.2688509866,-1.3445063242,3.6870884778,1.0502553987,1.8550185771,-3.714614587,-0.4343887093,0.1051610252,-0.6133786189,-0.4282950959,-0.8534050225,1.6218545241,0.1817831808,0.7142781905,2.1836146728,1.511954362,-1.8339199179,-2.3965856917,-1.5184239383,-0.0343611903,-1.3221379005,-1.6903047341,0.1939124598,1.9886662348,-1.2139391293,-4.3339881668,0.323739299,1.1850329037,1.1363516285,0.245283382,0.8945027359,0.8057243547,-0.3849461431,0.8605106665,1.6290581069,-1.2612128747,0.0498807594,-0.1517200458,-0.5466796153,0.2714416664,-0.9777304886,-0.4541649129,-0.2544459325,-3.5563886034,0.4833370876,0.3019525912,2.2088381397,1.2968706697,-1.5621131591,0.3764492309,2.8342995009,-0.98338583,-0.3072084319,-0.1292949994,-1.2864385752,0.2831494117,1.6144149173,2.2237609719,-0.8704843826,1.6385620024,-0.2040183551,-3.337377204,-0.0262763908,0.4256719036,-1.5576292008,-2.3804637714,2.2453739706,0.132381623,0.3080542977,2.3650223796,0.5360868395,1.4591133647,0.2454421236,-2.1605745045,-2.2218466976,-1.6530947934,1.2374772187,1.3628997717,3.4467007369,-3.5287039314,-1.6915937276,-1.5500485377,3.5130430805,0.7511569715,0.1455235204,-1.8997642387,5.0457125576,1.7303711389,-0.4807574868,3.1707209121,-0.7682078344,-0.7268161969,-0.5364322131,-0.4267215958,0.2480150936,0.7145950187,1.9262419849,1.1084609849,-1.8436144077,-3.0015053831,0.5111173761,0.2867588032,-0.1743694468,-0.2630637589,-1.8664310431,0.1126994844,1.0352886747,1.6783746358,3.1213005842,-2.1644035587,-1.5983227381,-1.784994067,2.5811267952,1.0461794393,0.8323816044,-1.4057605027,2.6151451496,1.3170393382,1.3460583969,-3.0503712222,-1.6562179417,-0.8841602878,-0.179846052,-0.2686885804,-0.0215875397,-0.3055191652,0.3589332581,-0.667713455,0.0676522417,-1.3506157648,1.1086814781,-0.3314702161,2.516443015,0.0771454103,-0.9019446663,0.8854992081,-0.5172939455,0.202813714,-0.0399682786,1.6392162835,-2.4060878332,-3.2536446282,-2.1754170676,2.3591115045,-0.7338672505,1.3308947808,-0.3479280256,-1.9033697245,2.45734894,-1.4052045594,1.0020186194,-1.1121519309,-0.0535010527,-1.1512482986,-1.1973395744,3.3295899912,2.0536201499,-2.2673991122,0.6439008305,1.6334988936,2.0564117671,2.1156754644,-2.8017910155,-0.7248611306,-0.3411629128,-0.1969044189,-5.1060652223,-0.9599512786,-2.8472013253,4.3129521049,-0.4645762862,-1.020762734,-0.6074878032,-3.5122951903,-1.8247609196,-0.5125940072,4.2938985084,-2.0804288623,0.7241095871,1.0841716841,1.685212387,0.3628659557,2.0126240926,-0.0172717901,0.5670360748,1.0243589399,0.8846662445,-0.5932606028,0.8701060696,-1.2058900979,1.9981139582,-0.6385455636,-0.8433352126,-0.1341615431,1.5390008303,0.8693791978,1.0504177319,-3.0539620711,-0.3594067051,-0.8988372166,-2.2762917364,-4.5445990115,0.1306876051,-0.258247949,-2.1427985758,-0.6014583958,0.4726446866,-0.6431258548,-3.0812974079,0.0684325196,-0.0044521552,1.2725304276,0.0271465174,0.4260325032,-1.1598123866,3.6199922396,-1.2635834601,4.0773292908,0.3020277578,-1.9311532343,-0.2245221607,0.9068105872,-1.7556140545,2.1826353465,0.4050974209,0.3261297444,-2.533988102,-4.047494698,-0.8702496285,1.1103706027,-1.3063994799,1.8035263602,1.141725394,-2.5824681807,-1.2402949446,-0.2937711878,0.3000349736,-1.8291968602,-0.1676672787,0.2405540323,0.1202017974,0.2333830584,0.5573771896,1.8423187346,-0.2724565326,-1.2701910892,2.1890928593,0.7032646588,0.0314748902,0.316254399,1.0025254997,0.3403605025,0.7384886672,0.2247418162,-1.2660112183,-0.7104526616,1.5108507277,0.1326178561,-0.5498930755,-0.4851563355,-0.6910706505,1.305280896,2.6118361082,1.5505400035,1.1560356688,0.3602634526,0.3528395011,2.3730701302,1.824708053,1.034993768,-2.1310158674,-2.5864671457,-0.8390938124,-2.4961908502,-1.6145895021,1.4856268039,-0.1627720834,0.942090641,-0.2770148291,0.3552693887,1.038168512,5.0689654667,-1.773176903,2.7984167815,0.4786621893,-0.5941477759,1.6367005301,0.0849405907,-1.7920590279,0.5556770922,-1.3940605398,-1.186779667,-2.6380153292,1.4715549898,-0.6315442236,-0.6718634307,-1.1631206666,2.0016295329,-0.5965319445,-2.9175995693,-1.7415953418,-4.7564714309,-1.7253201522,1.400897736,-1.0716653329,0.9087681754,-0.2499613102,0.3735615015,-0.4265925851,-1.5546699707,0.3120454392,1.8655111288,-1.4307958545,0.7282691327,-2.3169972796,1.1082245348,-2.0464917458,2.3514736664,1.4057623638,-0.6648314416,-0.1204668368,1.0828779466,1.2049143862,0.97569778,2.9445968069,1.2170471386,1.5983395903,-1.7815031566,-2.5586815128,1.5372736536,0.6056044618,-3.170131311,4.3700274384,-0.927697712,-0.7039943393,-1.0364846516,1.1784869143,1.9684766691,2.6930665444,0.1574828801,0.75420013,0.0291024287,-2.1362798558,-0.4870864135,1.2028761672,-1.1384421356,0.0737008035,-3.5563002916,-0.0389255536,1.1318650494,-0.0279361916,1.1852325734,0.2885593617,1.6537057796,1.2806763197,0.1950392121,1.949125831,-0.3347063749,0.6959135729,-0.5407990149,-4.6354253697,2.5439072306,2.4230724936,0.1125744775,-2.4717002026,-0.2563970153,4.500981798,-0.0161874589,-0.2259112021,-2.7721206896,-0.6606620715,-0.042746868,0.8978257295,1.5632187361,-1.9603518546,0.8805083997,-1.2558329395,0.8660668221,-0.7168967699,-2.1936414516,0.0649916755,0.1183343658,-1.1299990929,-0.9312784452,1.2658530828,-0.6904094628,-0.6834961157,-0.467264909,0.5971341633,0.3883411399,1.3857476979,0.2845062176,-0.1878164038,0.4171998067,-0.7542955209,0.3609398931,-0.5655034287,2.5738909082,-0.0940534746,-0.4806786198,1.9752820014,0.6756088656,-1.6405227908,2.8378069419,0.5068608788,-1.2084510835,1.8294316406,1.2265210324,-0.3460320489,-2.0378723059,-2.4642687804,-0.7148776391,1.8038955702,-4.6007619753,2.3121246399,0.7153136369,1.0655478974,2.0028576917,-0.8463453006,-1.6932829749,-0.6647192938,1.771663014,-1.0314741121,1.5812253857,4.3256607843,3.0020949129,0.20744971,0.9873959315,4.9078648969,-1.2783143513,0.5810565139,2.488911385,1.2731145696,4.9061018981,-0.4722065168,-0.7263246137,1.1603029943,-1.7836962531,-0.4185484808,-1.2053015936,-2.1631313799,1.8329882751,1.7848597819,-0.0538773119,3.6958522393,-2.0095335411,1.4300181055,-1.7831491441,1.5670027333,1.4620153227,-1.6917135115,-0.544956522,-0.6254926338,-0.5045248414,-0.9598978434,-1.1659199715,-0.2529381139,-0.8072199808,-0.4886637216,1.9081433529,2.5054940724,-1.3181788694,1.4412957177,1.5321014662,-1.8262156166,-0.9130509422,-1.179997748,0.9547390315,-0.8506927542,-0.851161869,0.971178999,1.3510045237,-0.7250870626,1.7336615367,-0.5354528739,-0.1693317696,0.2342154588,-1.5841675994,1.5398120444,-0.3904619894,0.1453836428,-0.4998458943,-0.0988350969,0.8190453931,0.373021687,-0.7810155491,-0.2485245854,3.0740405223,0.8632135815,-0.4529708453,0.2909500886,1.7034540462,-0.0051779156,1.1628089332,0.8643753203,1.2294028634,-1.263535877,1.5358213993,0.4608776893,0.6331720813,-0.0642951963,1.9282077372,1.3964082717,-0.2300339406,-2.5849118782,-0.8966736866,-0.0887131179,0.9142390861,-0.6827283222,-0.3540758011,-0.3877576977,1.6888820295,-0.4800695375,-0.9742087451,-1.9042245869,0.217589637,0.1651130772,0.3757827244,7.9879198394,-0.2336208953,1.8046341367,-0.4821146604,-0.4234553729,-1.9411780314,0.1830369391,-0.5250620145,0.5307931404,-0.5591872139,-0.547328395,-0.431099267,-1.6992162274,-0.5554239423,0.2925356096,1.3534720313,-0.058834271,-0.7560451755,-0.8251113412,-1.3567051942,3.6395441832,-2.630879673,0.7819970006,-5.0172287338,-2.4603872722,0.3790287172,-0.795087199,-2.8246286313,0.2648252779,-1.3777596096,3.4586662701,2.5152722894,-0.4906794212,-0.1212578342,1.2994918414,0.2395866049,-0.5444945107,0.4036800918,2.0198977138,2.5649428061,-1.3529992483,0.6982781031,0.3355365501,-3.0242474872,0.7228709894,1.0617238577,-0.2102685235,3.7976530066,1.2480628895,-1.4722021005,-0.4503729685,-4.1077841333,-2.2676047532,-1.2287650318,3.2375606466,0.1329693145,1.0832143446,-0.7051830648,2.5118954961,-0.0191862074,0.993190453,-3.5935200235,1.8104499759,0.2387810678,-1.129356598,1.4120152307,-0.9734764234,1.4621282716,-2.1693570261,0.006138964,-1.2458784922,-1.6252601662,1.2131204848,1.1924311361,1.9205407736,-1.8601637723,1.8795117966,-1.3236952905,-1.8388341198,-1.94049722,0.5446386456,-0.2143533868,-1.3925027924,0.5699964086,1.5505329098,1.2746896568,-2.9123793186,-1.2357597359,-1.3435188688,2.536101962,0.320330758,2.6323035798,-2.2839649489,1.6713718921,1.0638185251,3.8652911838,-2.2786234829,-0.3534850981,0.6614867822,-1.5413429963,-1.2079735494,2.6738982454,-2.2832777241,1.7198138844,1.4862284209,-1.8486342383,2.7779882874,1.250735653,-1.2043582104,0.5984594865,2.699141061,1.1016121305,1.0242982892,0.6139307094,-1.7902137433,-1.7396188972,2.1597129317,-0.6044664649,0.2423245065,-0.0958069358,0.108295266,0.5664076242,-0.3290325127,0.4007946695,1.0890153484,1.8964251442,-1.1933629606,-1.4406715981,1.0792281628,-2.3879171902,-0.6914144135,2.2074666584,0.0346873277,0.4967924544,-1.0112641921,-0.648579079,0.6939435615,-1.6542668159,-0.9208458406,-1.0755702411,0.010088743,-1.465420709,3.0359344722,3.0553915227,-4.0812790056,1.222723348,0.4132130164,0.1636429589,0.0047924227,2.7969465561,2.8509047179,3.6966308141,-0.7921531062,-2.2556714939,-0.2094937397,3.0785802542,1.8345375861,0.2826110346,-1.1735974091,-0.1279103831,-0.701144827,2.2561278315,-1.650266927,-0.6133025478,-0.2814181023,-1.7346945882,0.2683147555,-0.5322456747,0.0532354864,0.006354338,-1.2033035747,-0.3888020517,-1.871464335,0.8114090874,-0.0068352054,2.6019204509,0.7285103666,-1.3393991878,0.0025685387,3.5540024561,0.0033086981,-0.8172879421,-1.698752719,-0.4563112153,-13.0829294995,-1.8360030803,0.5658668144,2.0392085098,-0.2599874198,0.3120633746,0.7110973443,0.5953005744,0.5423647092,-2.0464379701,0.887356356,0.0686672728,-0.8273103252,-0.1975967234,0.8682655097,-2.2656192399,1.8042816448,0.7960605639,-0.5600000784,-0.5224484112,-1.3052707141,1.0799479799,2.3392768063,-1.6016475326,-1.6725927776,0.3899028823,-1.8723850603,-1.0247167655,-2.5124564078,1.6581741749,1.7217615514,0.9554907828,0.3528638469,1.172347862,-1.9769973082,-0.4016186612,-0.5112663192,1.0469486446,0.2158130763,-1.96337199,-1.8390231102,1.1606945206,-0.7572353474,0.1519266433,-0.4672615817,-0.1208940493,1.9057555784,-0.3302866205,-0.4430492861,1.3378908324,-0.5191995499,1.965101789,-1.2819957856,1.7681719707,0.359332256,0.2331512915,-1.4111346264,0.7389503218,-0.7316941423,3.2936413165,0.0599723176,-0.2079239956,-2.9770983078,0.3268391755,-0.6974241675,0.6836696652,2.7816423461,1.5972984062,-1.6793960626,-1.5827574541,-0.7850655641,2.0673943663,-1.9331636574,-2.1731200956,1.0237211499,-2.2154194451,-0.0954742293,0.9585857664,0.7416845784,0.106419041,1.4582103842,3.9820531881,-0.7355631894,1.1707991095,0.8987236095,-3.1226891179,1.1637169162,-0.8018030232,-0.5021366177,-3.0783022186,-1.7996826772,-0.4313751934,1.1312447386,1.2641133833,2.3918661804,-1.463939778,-0.4261583423,-2.2921190531,-2.4888170794,-0.9616430958,-0.2957544402,-0.8196081191,-0.4685966912,-0.0833152617,0.1338126672,4.2577520321,-1.6732007516,0.0361296491,-4.1447131477,2.0966768853,0.3468117488,-1.7946012177,2.6282527269,1.1682096745,0.0629201522,-1.893191806,-1.050431726,-1.5776003057,-1.3194615561,-1.8566536904,-1.8496347935,1.6270406876,-2.8715662973,1.637878463,0.2816829448,-3.3633251308,-1.0508235676,2.0498202725,-0.450905891,-1.9617752154,-3.1112127432,-3.556022225,-0.9760921305,0.8577728693,0.2437291603,0.1504725062,0.72062088,-0.0962821131,3.7848078581,-2.4267383415,-0.8390320671,-3.4431671506,0.3416800095,0.3218111529,-1.7794710282,-0.8392544035,0.9634290535,-2.3270402914,-1.5520978763,-1.2553100555,-2.6236825604,-1.0308808771,0.1284504956,2.1131661874,1.4243746971,2.1491539648,0.9641946207,2.6567648397,-3.0871125832,-1.6989309735,-2.7124932272,-0.9127633993
   2.8610382024,0.138371027,0.4146486682,1.7144627032,0.6849508205,-1.0004149987,0.801259525,1.2962864762,-0.5846300811,-4.2198531599,1.5256354733,-2.1182206091,1.210205105,-1.612064343,-0.6017143865,0.0263928449,1.0772435007,2.5817485688,3.2393195446,-0.8677618205,2.4933485351,-0.3173123095,2.7644724372,1.3577043831,-0.5688916799,-0.7222145053,-0.1883419895,-0.5040666348,-1.934176112,1.1320474455,1.2961388764,-1.9851915852,-3.1478175029,1.3767351068,0.4671413729,1.5266660227,3.7185045477,-3.7160394738,-0.4407098529,-1.1566487014,4.9029280515,3.1319819108,0.0799068916,-1.1251348131,-0.5689204273,2.1540770947,0.9090428555,-3.4776647228,-1.9235356375,1.9974244524,-3.3438784409,-1.1683220233,1.7406065273,-1.5800763558,0.711999991,0.4512032156,-0.309712342,1.3165018169,-1.3630278709,0.0121734163,3.0630259275,0.2669873194,0.0836693564,0.2810055047,-1.7862483357,1.5509502974,2.9267354033,-0.5007059428,2.0779082097,-1.4047563791,-1.163691962,1.1667851007,0.9686402756,0.1806289966,0.5787926975,0.628448312,1.1601209029,-1.7975814362,-0.6008116443,-0.1600881637,-1.7356786636,-0.3946378156,-0.0164569826,-0.8327564391,0.9266924729,1.3069024034,0.10901874,-0.6772768288,-0.1419533803,2.7893472671,-0.1512725474,0.0423750718,2.1239190913,0.8594106479,-2.3823853957,0.5238600963,1.9049662249,1.3837755256,0.7826550677,-0.8050863657,-0.6140243206,-2.0448941962,-1.9458813743,1.6335423702,0.7686453209,-0.6260825603,-0.8859778534,0.5040313073,-0.7017159342,-0.9132037214,0.3221011933,-0.6401669489,-0.025985622,-1.0192713344,0.9823345792,-1.6876753443,1.9631346949,0.3876603601,-0.7497808271,1.1324624206,-1.104002035,-0.1631199368,-0.867030528,-1.5340281015,0.4350014796,-0.0876421927,-0.1942978036,1.1088525926,-0.2613289609,-0.5351663974,-3.7898564154,0.1631923278,0.5409228707,0.7608581504,1.8707834442,0.4520201885,0.1328608495,-1.4596741376,0.0479163959,-0.3399936061,-0.3496332932,0.5611097534,0.4130742253,-1.1770437381,2.4500523676,-1.7943902024,1.5842932051,1.8279984742,-2.3152933242,-0.4564094088,1.5697368517,1.1754092586,1.0965720343,1.34720586,2.9184355993,1.9636109072,-0.4401040196,-1.3310132343,1.3759155104,-2.6831147596,0.3984181589,1.3593032924,2.7303247922,0.4186493309,1.4432669111,2.4533764181,0.6647196659,-1.8022066037,-0.5417147255,4.2254747644,-2.550720418,-0.2625342465,-0.7666092867,-2.1317022245,-1.6724607682,-0.9150943154,-0.3829424232,-2.4641788267,-0.3319638726,1.8664714473,0.2670376088,2.0807508053,0.7130737218,0.1422704328,-0.196332626,-1.1287690731,3.3350849629,1.9759803446,2.3195478207,-0.8543906998,-5.0125355873,-3.4831916344,-0.3067069572,-1.2046264816,2.5157545562,-0.4937489289,-1.1716097311,0.5787713744,-0.0999424548,0.9814943383,-1.6644223761,0.5656927962,-0.3517647108,2.224582194,-1.2384480911,-1.7840252827,2.1785834771,-0.3310928982,-0.0528874733,-4.1880721943,-0.1461008694,4.0057405649,-2.197071994,0.0174658207,-4.3222560889,-3.3438887394,-1.2129128791,0.1633035043,0.4820245014,-1.0765649632,-0.1977235974,1.3450268088,-2.0453093926,-1.1316244907,1.2778850189,-0.055697054,-1.1157825614,-0.8456195514,-2.6563731054,1.0835580952,-0.8932622451,0.5602213829,0.9079488013,0.7553710859,1.5800479399,-1.0957575785,0.8089306311,-0.0230873623,0.7923120569,1.6530604404,-1.0321206193,0.8936909422,-0.9173079163,1.3370870557,-0.3870380301,-1.0130922788,-0.5730176187,-0.2237586683,-1.8589839627,0.6474955618,0.5797850521,1.414085821,-1.91000427,-0.095509105,-1.4011702237,-0.4392355426,1.594357708,1.9521093644,-0.9693374002,2.4243112205,0.6229530726,1.9947187642,-1.3182399222,-2.1562758393,-4.023961727,-0.1517466801,-0.9864951317,0.1996641995,-2.041203957,-0.3618182389,2.5049172496,0.8358735008,-0.5345267994,0.7079919704,-2.0875777061,0.4362805604,1.8333870074,-0.8719625547,-0.0919631317,1.5963154173,0.5490024089,0.925933469,3.0206644536,0.6706743214,0.2821853741,-2.1351802917,0.4722945883,-0.4638654117,-1.7035638428,-0.1232682447,-0.7846920049,-0.715860793,0.1826567531,0.0425962778,3.9285205373,-0.0431284612,-3.502664836,-1.3719001432,-0.1479464975,-1.8112275395,0.6204592356,-0.8517239801,0.9456990172,0.2742838431,0.3377861636,0.1918200132,0.5807454581,-1.7712884155,0.5208909732,2.3914994767,-1.2951286354,1.6141873601,-1.1410741697,1.4030899946,1.7889667651,-0.2357612244,-1.1851331925,0.3302659297,-1.7695328129,-3.375309775,-0.1224102981,-0.2375686325,0.0887508958,1.0329397524,-0.1588547571,1.0808261846,0.5254291897,2.1487234002,2.1421164892,-2.7346205659,-0.6175912207,-0.0196566149,-0.3253246503,1.1308851032,-0.6119788947,0.2147626908,1.0589569906,1.8703190418,-0.9014692431,0.379814077,-3.1480832283,0.6957979996,0.9162035686,-2.010486293,0.9990210836,0.4438541845,1.6879833969,3.0954219685,-0.8701979332,2.6210195083,1.7592922358,-1.7986004578,-1.4778338106,1.4779044405,-0.9016561734,0.0830125967,-0.3619524946,-2.7141846081,-1.8667273804,0.1487205765,3.0713836953,-0.749271434,-1.1282046482,-1.9793111134,0.7774606698,-0.7620155782,2.4713869136,1.6630808368,-1.9318784669,0.9450401459,-1.3094858029,3.8411550206,2.9978467273,3.2978760385,-1.8832202294,-2.117308791,0.0589942039,-2.6942147486,3.1145263849,0.3744338328,-1.4605055403,1.1914315011,0.7858800975,1.5442130244,-1.1372607977,1.7774407968,1.3300850423,-2.6346242207,-1.502657564,2.8769598763,1.3872502021,1.4110490777,-1.6324135814,-0.316691683,0.4375022564,0.5134854801,1.4799399505,1.0335578998,2.2596786307,2.1073144207,0.1855019466,-1.0936514218,0.5096282609,1.5738809519,-2.0692501387,-2.7085246472,-0.4596789333,-0.4923071334,0.2978872057,-1.5487438973,0.1681787667,1.3492457864,1.2598750545,1.323474184,-0.4978020291,0.7341781364,1.0941281423,0.541154873,-1.1003453487,2.6233278067,0.2676801785,-0.8287535961,-2.0190887743,-0.8469215358,-0.9308881346,2.8407136185,1.3815736705,-0.9061877364,0.3116984599,-1.5348566891,1.6824929845,0.0069000319,1.1680850297,-1.3684006008,-0.7354802629,-0.106903847,-0.8604615657,0.2845890167,0.2377003627,0.6433789429,-0.0029934964,0.0434786078,-0.3866472605,-0.07617512,-0.3615772133,-1.6883327624,-1.6993569581,1.2248128291,-2.0972569515,-0.4317183855,0.3704152396,1.7333624029,0.032069034,0.0098904089,-0.8460153962,1.1640057474,2.3811758433,-0.7704215213,-0.6353954344,-1.687988474,1.0016256831,-0.6447536031,1.4613562231,1.1264177126,1.6595355932,-1.2209681378,-0.4998990411,-1.0622386287,0.2801431597,1.209216986,-4.0973161251,-1.6778136735,-1.6493028453,0.7563712012,1.9670335512,-1.2716839906,3.6733922736,-2.0182103255,-0.0232406696,4.3703283849,-0.7400892992,1.7235863713,0.0356576718,0.0895440225,-2.2099043629,-0.276563585,3.2902730927,0.7505398257,-1.5207227978,-3.0225985731,1.9093882052,0.7455807317,1.7209627471,-0.9300691613,-1.1082638392,1.9597727049,0.5742031664,3.0048191469,-0.9544138592,-0.3583693606,1.8106492049,2.324080016,-0.5246221776,-0.1609566473,-2.4970787523,-0.7127173972,1.2325911101,1.8729042489,-0.1876560425,1.7652194729,0.0462631172,1.0677095748,0.7770773068,1.8353207395,3.2458124368,0.1336910007,2.1122799187,-4.3630057563,-2.5194267533,1.7047207822,1.645605893,-3.2551698359,-0.6184909927,1.7570361607,4.2624916969,-0.3956734252,-1.30108931,0.194739365,2.3592228883,-0.1080022299,-1.9046592264,-2.0038076202,1.0932513861,-1.4475143948,-3.2162963607,-0.91380658,-0.3133940974,0.6198646185,0.4835609301,-0.2826701404,0.1861681896,-1.8049380566,0.5004280253,-0.065380888,0.5618778335,-1.2312361072,-0.8004960559,-3.6513348812,-1.8719148313,3.6999367528,0.1063774606,-0.2010603568,0.2874098644,-0.4348301102,-2.00016124,-1.8599799165,-1.6106546644,-0.0754235257,-0.8542312128,-1.0635012891,0.4456868349,-0.9710387988,0.5246359482,-0.1659099187,2.4789640884,0.4371406072,-1.3509142454,1.2884443327,2.0067001177,-2.1829024557,-2.7637028656,3.6359161456,3.3900023942,0.5270230047,0.4855426825,0.584755954,2.3292825154,-0.6525127696,0.5705229818,-1.1622754417,-0.7589663728,0.9307127941,0.4946823398,-1.3921977438,0.1122147682,2.3454217868,1.5737403769,1.1064038066,-0.6388960796,-0.1724461725,-0.0523896908,1.7635035112,-1.1790889323,2.2267982655,3.0835011901,-1.0362835947,-1.2918510028,-1.207213294,2.6865064983,-0.8812360227,-0.1297137399,1.0336686249,-4.6836090078,-1.664820348,-4.3837473814,1.5860871359,-2.5854871898,1.3425107404,0.4511864539,-2.0264428711,-0.6620687091,-1.5682979908,-0.8449995881,-1.3439932825,-2.9888107088,1.8970692829,0.784740272,-2.3191583541,-0.2728633336,1.2351021915,-1.9779837756,0.7196329645,-2.9781261372,2.9293861413,-0.0018836614,-0.8536603075,-1.5451940723,-0.4394800102,0.1630648868,-1.8474308025,2.1968347813,-2.7021262964,-1.6209988966,1.1939006337,1.4609983097,1.5168609463,1.4533614676,1.5540490885,-2.4711110376,3.0325869653,0.0483533402,-1.4477901015,0.4926854049,2.0151876089,0.5909069534,1.0264565493,1.3277644529,0.8174413465,-1.7238688496,-0.0886177286,-0.2203284108,-2.5037354871,1.5071879919,1.1162296839,-0.0310344019,-0.0992708651,-6.5411844252,1.1821300217,-1.5497800294,2.0926921626,2.1046411924,1.4353530841,1.8813400657,-7.0610554864,3.2286302854,-0.4430968518,-0.6612033528,-0.5788294914,-1.2048988294,0.5291444131,-0.9995414715,1.9762038812,0.582129166,-0.274519687,-0.2639155798,-1.7331590817,2.0533392247,1.6037903851,-2.0507573161,-1.217216436,-1.6547074751,1.8099667915,0.3275391652,2.4364757414,-0.6735302492,-2.3691688643,-4.6592597674,-0.6261636788,-1.0853247133,0.5176503162,-0.8124273429,-2.6964752087,0.1545337073,-2.1746466624,1.0255987352,-2.8634039116,1.2784985204,-0.2929730768,1.1873260037,2.1126242251,-2.3135529487,1.7777116218,0.1672966713,-0.92097437,-2.0988906532,1.0465132881,1.2528694024,-3.6818279051,1.5863893215,0.5070355773,-1.8533531144,-0.3846053378,0.2919981809,1.4293392427,-0.1612964189,0.9525179466,-1.0748085949,-1.3649591943,-0.9778147449,1.1732435974,4.5853413996,-0.9587423852,-1.4332840057,-0.6607311114,0.2275200559,1.1411911191,-4.7299894935,-0.4353894904,-3.6294339752,3.2844001124,-0.5257915452,-1.0272441965,-0.595270511,-1.1958998387,5.1169587703,-0.3721053964,2.0467463336,-2.9416383083,-0.7189692769,1.4990390041,-1.2554226476,3.3947491067,0.1598306821,-0.8312185379,-0.20712868,0.6073278119,1.0907395691,-1.1835329536,2.7528042512,0.2238093392,-0.2777939183,-1.4681605704,2.0243691548,0.7053525405,0.3134376246,-5.8964335189,0.4984487676,-0.5461096909,1.0586174094,-0.8198420671,-0.5682533449,2.4494065855,-2.0925646847,3.044797286,0.9092306309,2.7295021085,-0.9910991522,-4.7522527349,-1.1956300567,-2.4657774653,2.5037633937,-0.8410867522,0.871207448,1.8856367387,-1.714366675,0.0984891869,-0.2858688154,0.1237949196,-0.1460832632,0.2079852542,3.1290428373,-0.8094431402,0.3774229386,2.4061551528,0.7992688846,-0.5797407651,-2.246294859,-0.6710875024,0.5199582051,2.8050008714,-0.5401372638,0.5521649558,2.1126366426,0.4119236115,2.2047982771,-0.1398720223,-1.4969483226,0.3452793289,0.0362903264,0.2070091016,1.0177499575,-0.940544823,0.2973099298,-1.434608725,0.2197616901,0.8397896404,0.5296967803,-0.4969561556,-2.2519469004,1.6771573908,1.899323924,-0.5046852476,-1.5684887795,-1.9793961622,-2.9925888058,-0.5189444013,1.2831184461,-4.6503925529,-0.9691727248,0.0237648102,2.1123594393,2.5450153615,-1.0594714333,0.7008868385,0.0197779083,-2.9832238864,1.4089398165,0.134807196,2.7569755252,-4.5069004306,2.268872849,1.5055365017,1.8908832552,1.9365104354,-0.8511346656,1.4159976366,0.0438489354,3.6034987339,1.9804675434,-0.7349109244,0.3377404853,-3.5095205197,0.3797775854,-0.3064715016,-0.6192819067,2.1406883931,0.8527226205,-2.1647794478,-1.2208957158,0.4112167501,0.5772184997,3.0510777273,0.0292019665,2.0028612618,-0.0577531888,2.1634597699,0.3979956474,1.338425826,-0.312962581,0.037483461,-1.7168545292,0.4487005131,-0.3704136692,-1.0760092136,0.2945915126,0.1762102417,-0.2967404674,2.070974396,1.8606328013,-1.5137490305,1.8470120542,-0.3654418958,-2.0109088245,0.3286788454,0.8862655654,-1.0972897035,-0.5514359181,2.0709095219,-0.641185098,0.0857440772,1.0249853531,-0.2200874542,-0.173288126,0.7803434069,0.1527813268,2.2507482487,-0.2765526444,-3.262878506,-1.1041228308,-0.3519841529,-0.72830295,0.2822821815,-0.1404495611,1.0887225976,-0.66972981,0.118802853,1.4254681699,0.4163367319,1.0125934446,-1.5979419747,0.656299172,0.8042217874,-0.4994560084,-0.1452556316,-0.1975214865,0.8075999979,-2.22974956,-1.2853068652,0.5303442025,-0.6233618598,-0.0712208259,0.3853154185,-3.5405115895,-1.1874731283,-1.7125190373,0.4161972034,0.5989698341,-0.8544920562,-0.3757494384,0.5607663742,-0.4102465826,0.4734883142,2.5566439949,0.8922484076,0.1563407251,-1.2074615192,-3.2688545632,-0.7304853425,-3.9195008518,1.5201981056,-0.5395028984,0.6617865853,-0.8582625545,0.5192854953,1.6948626559,0.6451542482,-0.0508066248,-0.1211522923,1.6924011447,0.5165595477,-1.7433851584,0.4485313839,1.790630053,-2.2677565628,-2.4079337343,-1.6793914488,-0.9459467469,-0.4165625577,1.954462225,2.1340178412,0.3373623217,-1.7489154416,0.3564765044,0.2552522591,-1.0219566642,-0.6781559301,0.8945072981,-1.3218813857,-0.1391925186,-2.4711643968,1.1113203682,-3.3508053661,-0.4999647633,0.3778896479,-0.8900135223,4.0712063502,1.1177300924,3.3964828119,-4.1499083393,-1.1389053135,-0.9844409616,-1.2047561447,3.0679798018,-0.0830544869,-0.6453422823,0.6166840823,2.9135123925,1.10397188,-2.3800624666,0.8519196262,2.1899966367,-0.0836994541,-0.7855228664,1.2116812952,2.1638193852,1.4017243161,-2.2532892036,-1.0036096014,1.5232910808,-2.0417779042,0.1902336674,1.4409889059,-1.2379807417,1.9986002054,-0.0382534498,-0.8362708849,1.225264299,1.5773402563,1.1072632332,1.740948223,2.3393262118,-2.3930722391,2.0554560566,-1.1989955483,0.9340704345,2.2821713523,-0.1170781481,-0.0739058416,2.4401735316,0.2561493431,1.7728235458,-2.3184484597,1.0952431986,-0.7893232158,-2.1696243138,0.2852084031,1.8022616446,-1.4080926111,1.7904961514,-0.5245743288,1.6315950038,0.6334521248,1.4800016134,1.7345535809,1.0130959145,-1.1141246991,-2.6397075931,1.0575187052,-2.2213530901,-2.87709613,0.508244727,0.936798025,-2.3066632243,-1.9052797517,-0.5396999175,-2.2020450821,-2.1954153136,2.5783498543,1.2578951141,4.0445474579,1.0788749002,-0.9319498045,-0.1377013008,-0.6706299437,1.1979920144,1.9316765787,2.9852377449,-0.603626282,-1.3138999213,-2.3441347184,0.0494658027,-1.2198012595,0.3649120112,-0.0821198364,1.0650035894,2.0162208647,1.0785199719,0.3991466774,0.0094161774,-2.516535746,2.8723415963,-3.8770426292,-1.8588342036,2.9064208505,-0.01987769,0.4936697165,-0.1007297853,3.002971732,-3.1389110967,-0.908548775,1.9981440326,0.1689832139,0.3181709591,0.061333923,0.491628799,-1.3662139752,-1.7042869356,-0.0135452192,2.6593947259,2.4495136933,-0.3245821556,-2.3813722297,-3.750092263,1.1382407535,-2.0871455001,0.1436493432,-1.0998312292,-1.4784893495,0.7889583872,-3.3174389834,0.7593097989,-2.0400830353,-0.1299237555,-2.1196841363,-0.8666128354,1.5578867228,-0.2978812487,1.1170485156,1.1702078826,1.7149606585,-3.4445170355,1.5797322516,-1.5427577336,-1.4108499317,1.4459511748,2.30624593,-0.0087648436,-0.6281823459,1.6941056648,1.2055676886,-1.9235931949,1.52671188,2.7473408208,-0.1825232376,-0.4289623782,-1.0601971031,1.5461590397,-0.6158134722,-2.2915623369,0.9266125783,-0.264656477,-1.2763829404,-1.0842635977,-0.3312319768,0.4834866984,-0.7237527028,1.6301533732,-0.8960768919,0.1997263403,1.3448584795,-3.4321885045,-0.8891021675,0.3055509693,4.2883293977,-0.0798402395,-2.2804295539,4.8580969837,-0.2823198512,0.703276323,0.3218812194,-0.0798376973,-0.2396144131,0.6266084167,0.016603808,0.1886001172,-0.2600470735,0.543215232,1.0554748874,-0.6868508527,-1.5716808467,-0.3936771174,1.1418231176,1.7349133794,-1.1952081985,0.3217111029,1.4131790175,-0.3130633087,0.1968122212,1.01437647,2.8977209514,-2.115260836,-1.7545289468,-0.4013425219,0.6564741253,0.0777668756,-2.460977543,1.3087468798,-3.7998703328,0.2291287567,0.8854322479,0.4535019429,1.1963823616,0.1237742907,-1.6292925548,0.0218458352,-1.4678495877,1.0362502958,0.6561175711,1.9613065403,-1.6860801681,-0.8755006431,-2.2017088839,0.845634704,-1.46803296,1.7296834755,0.3012513148,-2.1870587296,-0.9341178615,-1.4631340924,0.4083052333,1.4659109452,0.3673755797,-2.4392997937,2.1706187348,2.7603334678,1.5697823957,3.7883855001,1.6594486416,0.9635955934,-1.3435413979,0.1549820381,-0.3179947633,-1.4706705873,1.1105166291,-1.8213921433,-0.4825324783,-2.1746456752,-0.3424517564,-0.6817763953,-1.9775409826,-0.8852347656,-0.1711720483,-0.9545721,1.3757674162,2.5408908817,2.1257994646,1.8870410762,-1.4956475912,-0.0682848166,-0.428379516,-0.0261974942,-3.8042614508,1.6024821628,0.2222224634,2.5460189279,1.216835025,1.0666001878,-0.7022516006,1.6278432782,-3.1584957871,-0.3819750626,1.2320729389,1.2844767132,0.674443464,0.6080128431,-1.3777049125,-1.1219027611,0.6243222815,-0.0482310577,3.3099690541,-1.2552240148,-0.8494697757,-0.75563967,-2.0192755116,-0.7497415339,0.9398110823,-1.081904156,-1.1093849246,-0.3257409379,0.6971796542,-1.7647101832,-1.0139223439,-0.459217355,-1.8321279533,0.9958891957,-0.6392691887,-2.4015800863,0.0975605035,-2.585601128,1.7911331204,0.5611624377,-2.8818649192,-2.6535770331,-1.2757945616,1.5253511123,-1.613467247,-1.9808669824,1.1242264538,-1.1426104568,1.5456584822,0.6982968965,1.9647668062,1.3299599981,-3.7167061624,0.8605460523,0.0311738953,0.2277620763,0.533538687,-1.8196296233,-0.47769642,-1.4234401786,2.5540575819,1.3803677677,-0.2592498141,-0.9546486304,-0.2548359602,-1.324699588,0.1156536528,0.5889797912,-1.5448992882,0.3303777938,-1.2035872747,0.4200695168,-1.178102389,-2.2973466987,-1.3348364692,-2.6536225406,-0.0542745368,0.3115682352,-0.5808346562,1.1805327761,-0.558681626,0.5277832015,1.2668940725,0.8791829174,1.6773071299,-1.5675940568,1.7708215359,0.3687091134,-0.555107975,-0.6475018759,-2.5470561377,-2.7054926857,0.6137311893,1.0439652665,0.1037481176,-3.8811712944,-0.8012354462,-1.3632865612,-3.0435178373,-0.6544969303,-0.4926526744,1.7439623538,0.4723359179,1.8634222936,-0.6752008133,-0.8535083682,0.3864294258,-2.3988827654,0.5549454854,-1.7189100768,1.2206633974,-0.0517557734,1.5836845156,1.2428339476,0.3768932017,2.7805588846,-1.8423714021,4.2736473713,0.0135863056,-1.3621209431,3.2051430713,0.8435917717,0.092964161,-1.3522376445,-1.2032012285,-0.0138812524,-0.7705408752,-4.8426147389,-1.4251730956,-3.1713366093,-1.6824303477,0.5016549411,-1.9270048713,4.1712095811,1.0163313997,0.6013839673,-0.6658580441,-0.0528742615,-5.0311945203,0.1023703126,-0.9688628567,-0.6054588784,-1.2536423944,1.7652219381,-0.8444210653,1.1721069053,0.6399002004,-3.6829807725,-1.0832912363,0.4559683217,1.9173515676,-1.7943139547,-1.5453657691,-0.4768204125,-3.5628629603,-3.0686686831,-1.8971928078,2.5433313281,1.2493108665,-1.6650895779,0.519675189,-0.3140615105,0.6748357283,0.7740535397,0.0021030235,0.3139684517,-2.3406541029,0.7556354768,1.2917659783,3.1090691631,-1.0276088084,2.5585050121,2.2182937157,-0.6787079636,1.9877421414,0.1051968001,1.0010901875,-0.4211760098,-0.2038865931,1.7060972588,0.1197428892,0.5755914519,-0.6321352862,-0.975094498,2.4705203621,-2.8393213212,0.6272752891,2.1213111833,-1.3386564209,0.4194635586,-1.0319230157,-1.4227997841,-0.0697800874,-2.1372339399,-0.3077472806,-0.1426971998,-0.6562945226,-1.7628440205,-3.0045629758,0.5804923538,-1.574008929,1.6108804469,-0.0204862837,0.556848795,-0.7363831646,-3.0909889447,-0.1533268054,-1.524100178,-1.9550591609,-2.5032222494,0.5087504696,0.7745432023,2.312430458,-0.303309212,-0.6652850063,4.2995827631,1.5624332216,-1.4542430159,0.9119869584,-1.4851144072,0.0589908395,-0.3793094011,-1.6558318119,-0.4683286622,0.3896589887,1.8333048896,0.5924805125,0.6205330239,-0.4298983923,0.5598127259,-0.8368697854,0.2798964623,-1.2187608981,1.9403074917,-3.6523976641,-0.8100624132,-0.484999649,0.0218886585,4.2748876723,-0.1965701957,3.173511161,3.1728570849,3.9182291159,1.8848003437,-1.7584939475,-3.2330248793,-1.9652842637,3.2332149945,-0.6508465625,-0.5429659413,-0.5222696732,0.2121449154,1.0346310112,1.3227238737,0.1999689247,3.0281610023,-0.4855704816,-0.8258161407,-0.4147066899,0.370793952,-0.0921774958,1.7261465767,0.4226530854,0.9801177891,-0.0950799419,-0.0914603894,2.0682256618,-1.9677921406,-1.1636420578,-0.2327433606,-0.0134360271,2.3477815832,0.7655006372,1.6893684535,-0.4877995395,0.325305746,0.7683778274,1.1767499873,-0.9374809209,-0.5843550941,1.4159676007,-1.3648701863,-2.9855842392,-0.2882804285,-1.2246744289,1.1592162293,1.960511921,-0.4963823589,1.442498171,0.0665278596,-0.8190797525,-1.0021149058,-1.5492349134,-0.1064852939,0.7307665404,-0.2904175421,2.1756982906,0.5337847636,1.66403792,1.2070530008,-0.6697297435,-0.8817025681,-3.5247043054,-3.0724295777,-0.3507975522,-0.5109424957,0.1791611233,-2.6368564088,0.1875054451,-0.32868728,0.1534430042,-0.9374793617,-2.1456879621,-0.522159833,-0.7091888977,0.8388025147,2.4052242126,-3.5517976077,-0.958194255,-2.0077753796,-0.3124243826,0.041194789,2.6442892854,-0.3103718185,-1.8611796119,-0.2227348759,0.2358770475,3.4377044233,0.3997986853,-1.2726307369,0.9667851006,-1.1375985905,-0.4846858661,2.6633733807,1.2268631249,1.3279199567,0.2393720813,0.9069554284,-0.4738371502,-2.0786541759,2.0754722691,0.4814072662,-0.7855855686,1.4895429552,0.7164527749,0.9328848432,1.7619770015,0.935227172,1.9152040552,-2.7028285015,-0.0917506851,1.3494280918,-0.4300418727,0.4178696305,1.8530988048,-1.1003563952,-3.0045776271,-0.87233098,-0.2500377412,0.5763772024,-2.3552590208,0.5095594406,0.4845335992,3.118324437,-1.5572326029,-0.8184925946,1.6453510298,0.036590458,2.2405494627,1.1166598668,0.4485230434,1.1707509284,0.5228403661,1.2145733928,0.7693750237,0.1811380567,-3.3854931578,-1.0041563306,3.4674145844,2.5860590759,-2.4614116713,-4.5127066692,0.0785591296,-1.7357147976,0.5886253341,2.6256411804,2.12897702,-0.5145589559,-0.7534220159,-0.2869082023,3.0302442023,-4.7938432195,2.1646571152,0.5704497679,-1.5887017889,1.2628012244,1.379810002,0.4139201002,0.9780250371,-0.0125043383,1.5831871287,-0.4272021292,-0.542128764,0.1279120155,-2.9845804394,-1.5449859126,-0.254878926,0.251020809,0.3301449766,0.0596821695,-0.4813538374,0.1673211174,-1.0542131211,-2.3582138809,1.8087701705,-0.5891957809,-2.3219602603,2.543915229,1.6494699279,0.7325041824,0.2506380556,0.9210083018,1.839259844,-1.8355899958,0.0274914335,-1.1846701425,1.8022922276,-1.7475694963,0.8464816975,-0.5443074063,2.8090154051,0.6321176497,-0.682585765,-1.5488738915,0.0324279696,-2.8748797729,-1.0224290816,-0.5512507529,1.7696735113,-1.4869590861,0.2162790491,1.0761971828,0.8555083555,0.1158908249,-1.8287446278,-0.198485675,-0.3661575035,1.5352075461,2.8188885102,0.2494798721,-0.1650201021,-1.4142264465,0.8496875895,0.0640005653,1.446746413,-0.2701162785,-0.9114966399,0.816272366,-1.6054758862,0.8106479193,-0.2368721326,1.3986538194,-1.2632245316,-0.4090823738,4.9874975988,-2.8184810315,-0.4367128102,-0.7367146284,-0.6099543896,4.8296617131,0.8251095415,3.7781302735,-1.8439831747,2.5408814607,1.4023649682,-0.6792324625,0.7444985264,0.1410945482,0.0690029069,-2.2155841958,-1.2799849326,3.086355702,-2.3671939572,1.9860352868,1.6360072414,-0.315341271,2.7789482585,3.5158631764,-0.1455069219,-4.8204057674,-2.8002547562,2.0082221537,2.5161411432,-1.1138348446,-1.7787354593,0.5299473183,-2.1123374083,-0.388533988,-0.6859051169,-0.566612735,1.4595109071,0.4847013034,-0.2639654601,0.5559657609,0.6664171841,1.3192958359,-1.6602732668,-0.6157429606,-0.5944145397,0.2053964502,-1.0375694262,0.5263977763,-0.1512991147,-1.129320615,-2.0835509336,2.0097984916,-0.8474746052,0.529841878,0.5871794277,0.308155397,-2.1632570594,-0.0382801422,-0.4040307308,1.4961061802,2.0257255073,-2.2407945333,1.1506906113,0.3594098173,-3.41203243,4.5693510953,0.4266593584,0.3945292822,1.7967034563,-0.6731607908,-1.9352624443,2.6139683349,0.6471576672,-0.604884452,-2.8452259728,-0.7715789714,0.9375764277,2.8764328755,-0.3944192953,-3.1219636016,0.8094341335,0.1466328968,3.2564070993,0.0993593228,-1.217705449,-1.3256948452,-2.1491415499,-2.4138010234,2.8420821396,0.6808413337,-1.5541544047,0.3256338843,1.6886765021,-2.3366500757,2.1700357731,1.008064916,1.1649157949,0.6348305518,-0.83746758,-0.1761179829,2.1261714895,1.4174314688,0.2110621246,1.4745347845,-0.5426992287,-2.3590093467,-3.3720117151,-1.2726347496,-3.3771580649,-1.4119683476,-0.7012323344,0.1476190086,1.6553965227,-1.2886128818,-3.0218414864,2.2089074731,-1.4921097603,-0.6690667526,-1.4624969235,0.9458735381,-0.3654815922,-1.3227973007,-1.058335517,0.6074390619,-1.0022349614,-1.0355412919,-0.1385097768,2.0592684338,1.46404983,-0.5564004167,-2.2071276472,1.7872424521,0.9764931172,0.5704570336,0.6987644931,-0.2492927794,-1.2475157514,-2.6412735408,-0.3186234012,-3.9727845733,-3.279063281,-2.8934848103,-1.0478053332,-0.4628234324,0.2592869417,0.0795452168,-2.1085711278,1.4059463453,-1.7375095181,0.8450552606,0.2619119812,-1.6247621805,-0.6906375763,-0.7154797333,-1.9101862192,-1.9396985043,-0.3652785891,0.1066043816,1.1887740555,-0.185413901,0.6708561222,-0.2023106731,3.673434746,-3.4294094483,1.7124209945,0.9747199393,0.1542750031,-0.3682857285,0.3092299473,-1.1636805949,1.7801499872,-2.2351830175,0.2395049456,-2.4841310988,0.1584854831,1.0207552512,3.5362330662,0.1517045608,-1.3854717593,-0.2064716519,-1.0296059447,0.8685181213,-0.2444895691,-0.5005976034,2.6834818315,-2.3087281201,-1.5555959721,-1.0448143395,0.671392132,-1.3259516011,0.4467611322,1.8633677693,-3.8524355639,1.4331064282,-1.9510918482,-1.5317229713,0.1163052064,0.3107032786,1.3136278897,-1.5995012914,-0.6553790649,1.9438270128,-0.7408955358,2.2782507314,-1.2459662559,1.0413168475,0.5634023329,0.0966996221,1.7057125432,2.5469732309,3.0893038258,-2.4122048145,3.9651485186,-0.1678026144,-0.1475417611,0.2529924309,-0.8032563289,2.6712195394,-0.3617828457,1.4430507532,-0.1786633929,2.7397776105,-0.5382022014,0.1613038121,-1.1689438691,-1.4734733505,-1.7645091116,-0.5160828509,-0.5630078288,0.6584094307,-0.6756813963,0.4576630618,-0.3853578403,-0.2509279193,0.4470472888,2.5919956924,1.2200339652,2.1649025601,0.683489518,-1.9498089801,0.522515121,-0.0296587361,-1.1890183636,1.5472247711,-0.2819533636,-0.8579319975,-0.1893747462,-3.0989520402,0.296945861,-1.0352361725,1.6867679738,-0.9072464835,0.703881235,1.9977584919,2.8101508669,2.5264342094,0.1536858563,-2.0841822571,2.0972922661,-0.4101007471,0.8966851799,1.8637030062,-0.0218616451,-0.8269718543,-1.0003390737,-0.1064223222,3.5363312914,-1.4311003868,0.5737700393,-0.5329739203,0.7023567399,-0.2308143461,-1.0409305899,0.6762906681,-4.3564779543,0.6120288856,-1.0069485337,-1.865891502,-3.0187254893,-3.2511258387,-0.278270133,-0.5245477885,-3.789060206,-0.063296355,1.3006934588,-1.2554469206,0.5155851695,-2.5234029222,-3.8208766813,-1.0770440897,-1.8458595655,-1.1041436652,2.0596478314,0.1328956246,-0.0942651991,-0.3206420774,-0.4096473374,3.0083436356,-0.7367966105,0.3554293083,0.8666554043,-0.4094521118,-2.293690295,0.7902999728,-1.2699070421,-0.1390616006,-3.4621490889,3.5808916544,-1.1031415812,0.7120663723,-1.3317655747,0.1890664764,3.6982856805,1.6200313983,1.477656379,1.4047182231,-4.1822157146,0.0185711124,-0.0294456275,-1.9160539329,2.4637907573,0.3787038719,1.4921184302,2.6731268791,-0.7162708039,1.1750364346,-2.6401090483,-0.6590123999,2.2217756006,-1.4893587192,-3.25348261,1.7066275154,-0.5441181728,0.9406915326,2.2014438591,-2.0727378328,0.2339931332,-3.237408649,2.0167957525,-2.0842226818,-1.4570787871,-1.8391544918,-0.6064791159,1.7225742897,-0.630527927,0.8914472298,1.5726472652,-2.1214388922,0.2523358261,0.6896364363,3.9300619894,0.3609036375,-0.7037345916,-2.6070195849,-0.1852359338,1.2376764987,-0.5241166244,-0.2231736301,-1.7188324497,-2.1419868846,3.2466370918,-1.0195195936,0.7639571602
   -1.6703418254,-1.685795368,-1.4689135676,0.8544444461,1.2745215565,-1.7262249473,2.4811942035,-1.1900861327,-0.0057689565,-1.1009302479,-1.4310884967,-1.0636236515,-0.2103968737,2.1207055196,-3.532185424,1.014705864,0.3039399728,0.7966038657,2.9245888647,-0.4951855891,0.7085857126,-1.3586559161,-2.8792193027,-1.0865879087,1.0777264255,-0.0989017786,0.9993723023,0.6157363257,2.9733797952,1.7353447922,0.5869853967,-2.6461835253,3.0810917489,0.6068810719,-0.3578155194,1.5420226274,-1.1985292231,-0.9791845988,0.4878603745,-1.429915614,-0.510760805,-0.2866212904,0.6923833681,2.6643058769,1.5085430841,0.0056922274,-1.4775513431,-0.150497396,2.8933440738,-0.2890267789,-1.8914207165,-1.1872660431,-1.3564706852,-1.1843370587,-1.0227201378,-0.9498646915,0.8328481464,0.5977373008,-0.4129817266,1.9909136241,-1.6831154951,1.1828175765,2.6453827924,1.3882201329,0.7979693613,0.9812915165,4.9649858705,-0.3901176277,-0.0615655389,-3.3334416485,-1.7474975663,2.2195560952,-1.9189551521,4.5330950231,-0.4830315225,-0.1973270579,-1.149814582,0.7586770746,-0.7476389984,-3.9879968023,-1.5502746401,-0.0372723563,-0.9356816359,-2.0336761972,-5.4525390523,0.021076227,-3.3330665482,0.869087123,1.229520721,-1.8584529227,-3.5425691718,-4.0777977541,2.3396402798,0.5644527747,2.9216710847,0.5345597467,0.0665815061,0.3013989613,-0.4121144458,1.0805633086,1.1531581449,1.5074710161,-1.3743697295,0.1979533817,0.9182292031,0.9108638541,2.9666320961,0.8870472973,2.326159877,0.8011285064,-1.3409090827,0.340560863,1.6997392014,-0.2767588375,-1.7628434107,0.4618530571,0.1856824887,-1.7785961511,0.9141857881,-0.2083736499,0.757116635,0.8566576814,-0.9664202619,-1.4584542845,-0.5058316908,-1.6868232528,0.077646208,-1.3222985865,1.8918906897,-2.4066145806,2.5093372686,-4.1063395002,0.6298999774,-0.8999995909,-1.8293592049,2.0561013951,1.2868686587,-1.4975638663,1.850557093,-1.171578456,0.372857862,0.0638369056,-0.0853672755,0.1722350506,0.1281729279,0.7158331605,2.4403044862,1.724792166,-1.0241336742,-0.203820496,-0.6018151618,0.5103285847,0.8260109538,3.2479921276,-0.7476806021,-0.5597589469,-0.130353002,0.062687181,-1.1115337498,2.2024355045,-2.478726458,-0.1166653152,-0.274596904,-0.2339759069,-0.1125354262,-0.3437062516,-0.42368701,1.0658677197,-2.7564304305,-2.3166082295,-0.4187780716,0.5046633365,1.9981592634,-0.5093111412,3.5215408439,1.4858003074,4.9003965781,0.0623965895,-0.6421958813,1.4375270511,-0.3817194634,-0.8201076278,-0.6399064293,-0.8436908687,4.6494478915,-1.8160177284,0.9393365786,2.3775021211,-0.883653433,-0.0033257625,-0.7801836172,-0.7368026768,-0.1588434153,-1.2401220192,1.7635293716,-0.6953200303,0.2638790049,4.2326083338,1.7125664778,1.1607444884,2.2272628913,-3.6160979201,-1.6944368795,0.036019928,-0.8327456225,0.0823301811,-2.9850561263,-0.4865259972,1.5852081562,1.764726867,-1.6615304096,0.28182183,0.6815062529,0.8949274264,2.9113027973,-1.7438129288,-0.0913690798,0.2710857869,-1.7033483614,-2.6063691132,-1.1522287245,-0.083173441,-1.9154134995,0.24794789,1.4708930872,-4.0238710545,0.1477269754,-0.7265026413,-0.1878227097,0.3940858006,0.9156442699,1.7403461765,-0.1572234415,-2.2042468513,-0.4580057008,-1.4255899828,0.6448338648,-1.1793820139,-1.5242424528,-2.1695701045,-0.6423029549,-1.8621398306,-0.9944358345,0.6135381696,0.526647867,-0.15691357,-0.4816101449,0.7055611171,-3.1124385338,1.1248848545,1.2764987492,-0.3931968388,1.3543874608,-0.3882643534,0.5981588044,-0.2433451291,-1.9054639565,3.6817392589,0.2924872956,-0.6166145602,2.7269963924,1.3956235627,-1.925918519,0.7431664675,1.1623513644,0.0053256606,-0.4804906805,-0.5878604827,1.2013673959,-0.772962304,-0.9345829876,-1.7497386332,1.1519254753,-0.3953536548,2.5806671942,1.0751711855,0.7381664929,-1.6385417721,-2.9315497952,1.6004587976,2.4711114521,-3.2475078901,4.2673281192,0.0258654858,-0.2145982587,-1.3422330547,-1.3190620436,2.1814219462,-0.3796604849,-1.5637758612,-3.3822788404,1.9987831193,4.8608972818,-0.4801473562,-1.6778846273,-1.143114366,0.0892512425,0.2985932919,-1.3581315,3.4104496048,2.3636679927,-1.1343276921,0.0173993485,1.3473033993,0.7015980807,0.3721496091,-2.0586056907,0.5988316692,-2.0703395822,-0.419195381,-0.2994703566,-1.3597166514,-5.0703096746,-1.3960483722,1.4056108243,0.1099242757,-0.1688778212,0.2468382437,0.3788261037,-0.8569133577,0.8324806808,2.4408867732,3.8090290954,-0.2861815748,-0.3778558329,-2.2016486498,1.0312121253,2.8918918196,-0.1937536127,0.1495136184,-0.6748529967,-0.0149431633,-4.2023280572,-1.3041854231,2.2835303593,-0.3382295895,1.5502705777,-1.3635016901,1.2240634518,1.6207811522,-1.1796333586,1.6206411729,-1.2693110474,-0.0334689645,1.3279618904,2.5161025794,0.9181410335,-0.0878853761,-0.6238271843,1.8907701319,-1.7802747518,-1.2469634416,-0.3876195508,1.3738370118,-2.8073444214,-2.1100807509,-0.7273453333,-0.67210113,1.8497510148,1.7181592591,3.8939370081,1.0940147735,4.4011145994,-0.8603449945,-3.084903305,-1.4193883835,-0.3844119919,0.511656607,3.1085866638,2.232751788,-0.4942279787,3.2804064698,2.6265546354,1.4516451116,0.9439275911,1.0284200161,-1.415222154,-0.2647555073,1.0519309624,1.3743808725,-0.2267562458,1.9278252752,4.3173349162,1.3983267265,-3.503215225,0.3994420124,-2.2022292187,-1.1965173686,-2.7792256059,-1.8630358567,-0.3228446854,1.5539312099,1.5611213459,-0.6238495723,0.3482572568,-0.1776930061,-1.0178234269,2.2326577638,0.5246035058,0.5061632301,-0.5608705511,-1.5930264983,-1.2499227191,0.9070588871,-1.4308455819,-1.5559110082,-2.8733319345,-1.0555800075,0.8806914173,-1.5022925473,-0.0547392479,-0.8589823732,-1.7954292636,0.2250891082,0.6249740101,-0.6956735089,0.0438101388,0.8862820023,-0.9511484493,-0.5795232981,0.677050284,2.0166433461,2.3802112859,0.9266664233,-2.0289929663,0.8235404243,-0.4866339885,0.0082863292,1.7304085463,1.4973891079,-1.7239145533,-0.7764988086,-1.25067666,0.5268144647,0.3973546205,-1.1958863371,3.2184315612,0.1149372947,-1.4485003676,-0.2284767007,2.7344747842,-0.5071263034,-1.9355183873,-1.1636303363,3.8364922432,1.7771845657,-0.2558232468,0.0087939922,2.7303140563,-1.0900575218,-1.062587976,-0.7759168459,0.7756035895,-1.8104160746,-0.4467848482,-1.1093009561,-1.4963348627,1.3193538469,-2.0588497313,0.3185085212,0.4946963925,0.8080364946,-1.1092398697,0.2696671124,-0.4736308198,0.7260493047,-0.5900691217,-1.1477042731,0.6800448926,-0.44979462,0.798132928,0.4322111851,-0.9618298687,0.908997398,0.5620153214,0.8571511155,1.2260821784,-0.1011421001,-0.3725028216,1.2593635673,0.0729874994,-1.0368196825,1.475257793,-0.3905078585,0.8000613749,0.4927744184,0.1577484941,0.5621698232,-0.3004677185,1.061124724,-1.7924216426,0.0431398081,-2.0624403858,0.2942478686,0.055763152,0.5311419549,-0.2538098335,3.0636338414,3.0390249073,0.0393777474,-0.9734855452,-1.0750602646,-3.6248521819,-2.343067408,-5.6755885259,-0.5701510828,-2.3846760624,-1.0477560792,-1.5432292627,-0.0544549884,-3.0180688192,-2.2494770421,1.9709636958,-0.0122601171,-1.4248409008,0.4298709364,-0.5606754695,-0.3970277607,1.3412882985,2.1218223527,2.833704972,-0.3502260005,0.1254793025,0.9128927425,0.0129085928,2.2743397258,-1.3499564405,4.5860817723,-1.7063019446,-2.170810606,0.2436756121,-2.1758767066,2.0051741932,1.0953209802,0.889739836,2.0651033891,1.9010712427,3.3347355706,-1.1832429162,0.2559220903,-0.6381690726,-0.4395767736,0.7386315558,1.5449029041,-0.8975602988,-1.2792623085,-2.8752983104,3.4740779934,1.1103763178,0.6417110388,0.7076619584,-4.5132195937,-2.0622076562,1.1432845502,-0.7139294807,-1.3702376964,0.0173715939,-0.5701789292,-2.0737832531,-1.2314636759,0.4767952849,-1.7502642404,0.2251836474,1.1445497666,1.1393674811,1.8703892741,-0.7592139392,1.0020779932,-1.5721511218,-2.4494412369,0.162510274,2.277195102,-1.245318397,0.2095621304,1.314856207,-0.1377770909,-1.5117822491,-2.7358657579,-1.1628098655,-1.2410917664,-0.2533571459,2.544503118,-1.7555560659,0.0557143129,1.07123822,3.8239857609,1.4581600984,0.0825076325,4.6763419069,1.6061256886,1.3878437543,1.5025386582,-1.2968831782,5.1007887705,-0.9344020935,-1.6861233386,0.2180159431,-0.099374974,1.0483885821,3.1168162434,0.7392620311,1.0823786373,-0.8961861529,-0.3073180774,3.7618765569,-0.9172182666,-1.1080196484,0.7750947597,2.0948109205,0.0391650957,-0.8284971893,-1.9724616136,-0.6729004546,1.015311617,1.4157038783,-1.7755908844,2.0999838196,-2.0513148917,0.815543392,0.0407756868,-3.6233150561,0.9905012556,2.249544418,-0.1404707994,-0.2209899353,-1.9047031949,1.1933513532,-4.2466812071,-1.9422176996,2.7091503254,2.4101877015,2.3387384617,0.5300851302,-0.0305464654,1.0124411635,1.3146496024,0.2171358471,0.1189646265,-0.508013362,0.8548341508,1.7437489409,0.2889634231,-0.4682489343,1.2276832056,-1.2582526391,-0.7571523145,-0.2323155043,3.260094546,-1.0295588595,-0.5309491006,-3.5484868675,0.3728110808,-0.2923117282,-1.5793957641,1.4540357638,-1.1880449273,1.6070125766,-1.3723788936,-3.8739787706,0.6818331645,1.3261519019,-0.599959179,0.6643909415,-0.1789262692,1.914293891,1.2117337726,-1.7110988671,3.3449649309,-0.8614305533,-0.7790425247,-0.1251509821,0.7560193409,-0.8122018255,-0.918122597,-0.6402931675,-0.0460260356,1.4110067227,-0.9171188451,-0.9862772867,2.0597259147,1.6917081984,-0.5622451902,-1.7448964282,-0.8784324391,-1.1686906413,-0.0381579499,-5.4551371445,1.7004396008,0.9031455409,0.2815690991,0.1243423663,-2.0987889254,1.5972302869,-0.5911711342,-0.7983579306,-2.7140943052,-0.1633609707,0.4154838209,2.6476087502,-0.4657813154,-0.1562869177,-0.326206701,0.7413126414,0.2242366113,1.0031764546,-0.053010346,-0.1002549168,0.3264340669,0.9612675486,-0.9405262969,-1.387116653,-0.6279640023,0.2500072219,-1.471451652,1.5958089832,1.8224995451,-0.2238481888,-1.5462599434,-2.7637805177,2.0918111659,3.118724331,0.8210778786,-0.1226756453,0.6846451609,0.4662253144,-0.4177628987,0.0042042327,-1.6675070683,-0.4270606671,1.6182963003,0.2452048189,-0.8521417172,1.9557448361,0.8277047268,1.5906032538,3.3990679141,-0.1396845081,0.6453981929,-2.4357203101,1.0047649599,2.1958371528,-0.0197741157,0.8112736406,3.3915709998,-1.2685466269,0.4766874052,1.313923095,-2.6077612502,-0.3898812355,-2.2591438486,-0.070048954,-0.5925234793,0.3058603789,-1.1222460466,-0.8040832722,-2.4149564705,0.3645511121,0.1210816545,-0.3954652424,-0.2906905317,-0.3736593068,-0.7612473308,2.1118783845,0.6975098625,-2.5659065316,0.9853724586,-0.7683156779,0.1103197229,1.6950494106,-1.2995567686,0.599397805,0.1856143836,1.2904340529,1.6526630926,-2.01767683,-1.3200967933,1.0378609863,-0.1914286125,0.0356666535,-0.1345200969,-0.061715176,0.2238907154,0.1137909819,0.3860768541,0.7232713201,0.9557000323,-0.1641143504,-0.7065429957,-1.1612396072,-2.531201764,-2.114800498,-1.5710428701,1.2491233877,2.4919841913,2.0186860527,2.566506123,-0.6722971075,-3.0265560572,-1.1472759721,-0.9044303136,-2.9030993281,-1.6684534158,-2.0728647536,-0.3787588475,-2.1765659371,0.9633451221,-0.748382102,-0.3041607175,-0.4352494149,1.1986136493,-0.8157730895,-2.7390712486,2.3137430816,-0.0361747843,-0.43895727,3.8028112509,0.4457355011,2.8502038035,-1.707262645,1.3887969667,-1.4851627127,0.1258285931,-0.0240353118,-0.3408703418,0.6356945739,-1.6771691072,2.816201855,-0.3286346142,-0.1928569893,0.1632070943,-0.1302590583,-0.9461806532,2.5275893098,0.5264067483,0.0065026458,-2.5606399641,1.0104840467,-0.027973683,0.5708507668,1.2607624639,-0.4927492832,-0.8399084392,1.958699505,-2.5869003687,1.460535004,-2.1924820683,2.1389573978,1.2517672226,-2.725197582,-0.2499783956,0.1163768225,-0.1024462846,-2.7352279863,-2.9465055717,2.142555963,2.8558840286,0.5088038116,-1.8973121094,-1.1810451792,3.4981656197,0.166180503,-1.93913285,0.0488369779,-2.7378475846,0.6666216798,-1.3507326424,1.3091439608,-1.7827352708,1.024544734,-0.7198194685,2.1825294306,-0.5310878511,0.9231242452,0.4087900436,0.3244980474,-1.6755900587,1.0798689711,-1.6111193868,-2.8222098866,1.7099731894,0.0419979573,-0.5515230753,1.1933850628,-1.3361421492,2.4106525246,-0.5038648425,1.4870163662,0.9136533173,-0.6655033673,-0.1183914272,0.090222939,0.2164034163,-1.1413533284,-1.3368264528,0.7315343013,-1.1180872759,0.8974053439,-2.4582836109,1.1920214193,-0.158819062,-1.5738428103,-1.420289561,2.0738381812,-2.7063346756,-2.2088862285,-0.537694693,0.7351285548,0.5929770404,-0.1697564742,-0.6039184423,2.7372600321,-2.3174073558,1.6758125719,-0.2481311152,2.1218115786,-3.8434167131,-2.6714582155,-0.2217551293,-1.549385571,-0.067338532,1.7593358512,0.5597831693,0.9335903371,2.5850167208,2.4828958273,-3.1891393253,0.91789309,0.1118201077,3.1349778386,2.4428194783,0.3251298808,-0.5998942216,1.5703111321,-0.202099748,0.2156649088,1.1325414993,-1.9115677251,-2.4007171659,0.7781199165,1.5907501734,-0.8932752512,-1.4317550139,-0.2429008346,-0.0516408295,-2.645362151,-6.78614965,9.6371780163,-2.0859754113,-1.1479427796,-1.0858156397,-1.7450009844,1.463281284,1.1852684989,-2.8374973782,1.4288119623,1.0207601961,-1.0683416254,-1.4252988488,3.9362407823,0.1940065176,-2.5857042874,3.7200435442,-1.2848097079,-1.2111220938,-3.7988712014,-2.4134078878,-0.2617542737,-2.2121787801,-1.4931282936,1.3055327601,0.8429398589,0.4945907296,-0.4482695002,0.3053852695,1.033012376,0.270894345,-2.7576037158,1.3941423122,1.0720315944,0.169683473,1.0361412826,1.2998137495,0.6920130244,2.0727241405,1.9388120159,-1.3138343617,-1.4816229934,-0.0024448253,-3.560989095,1.9083030799,-0.9349509557,-4.2726418418,-1.3240250322,1.2498729347,0.0461660582,2.2738897023,-0.1534112599,0.7788016577,1.8041982654,0.4870780717,-1.7369674552,-0.684515936,1.503085337,0.7820328477,-0.7332419482,-1.2567387182,-0.0008687964,-0.6036382526,-1.2197919404,0.2042556253,0.8223017052,0.2528768833,1.3063913076,0.0150105235,-0.2629454201,-1.1011258557,-4.774791387,-3.194080943,0.2199076829,0.513224971,-2.1804769735,-1.8217653787,0.5717974536,0.849829209,1.7657694505,3.8653131617,0.1210603783,1.0535481647,0.6350559037,-1.6276714073,0.0190863407,-0.8824026237,-0.992725981,-1.7598725563,0.0603491464,-1.054587329,-2.0829034146,-1.466230227,-0.2878957836,0.096266193,0.2774793225,-0.0660864893,-0.211967354,0.3789060672,-1.0715695009,0.3923094269,0.1279073514,0.8316117764,2.1346433408,-3.0294855422,1.7318027167,0.2544643874,3.3497444649,-1.6726101266,-0.77165547,1.879540045,0.2995526706,0.056857258,2.9749024898,0.8929837441,2.5470666948,1.1937711859,0.3000763984,1.3629976832,1.2626292108,-0.7447752605,-2.2041246786,-0.29007322,-0.4210877182,0.316676292,-0.1592284845,-2.6690680634,-2.7727863043,1.1898543002,-0.1043033051,-2.232951448,0.9413200059,0.2627860407,2.1372241085,-3.9289028253,-0.0019685238,1.1918150175,0.1005717088,-1.4076233368,-1.026469389,-0.6753448769,0.8019345543,-2.9026368991,1.3715089519,-1.0099299394,-1.2840807194,-0.3722233745,-0.3528737759,2.6375581667,3.1434122969,0.7057665766,3.3374112418,0.2237894117,-0.1552112043,0.4111805492,1.8124434265,0.0132950027,-0.2290136023,-0.6271120516,1.9231695699,-0.138472661,-0.0343979435,-2.444323761,0.7882258259,-0.5077042002,-0.1363020099,-1.4579801227,-3.3496485497,-1.0874625313,-0.0675121409,-0.7615922927,-1.4135744884,-1.2598143949,0.6172959611,0.4921945766,0.1907587227,0.3606890864,-2.5294577056,-1.7300586024,0.1479666226,-1.2083829477,2.1265518549,-0.1835674558,2.8983225269,0.6387870051,3.2952682638,3.7738321454,-0.2810859697,1.6291295422,-2.0455851428,2.5498378953,0.77970113,0.5718617103,-0.1345828879,1.3436333903,-0.0593755736,-0.0506352278,-0.9193918578,-0.6293251622,0.9240080665,-1.0745629036,-2.1558111198,-3.4141213092,-1.6532439678,0.3010824345,0.910719701,-1.4562302777,1.9879598228,1.4211227537,-0.3653648383,-0.4216967036,-0.9510975615,-1.5500181769,0.4868096976,0.9682223708,-1.157140074,-1.004248319,-0.7903074889,-0.5832921911,0.2969364344,0.2814233121,-0.0537802765,1.3414248515,-2.4003594582,1.6097993436,-1.4228775302,0.1023719286,2.1600093835,0.8676452667,-1.3436445766,1.5225917624,-0.9188905957,-0.8192603022,0.7390562805,-0.4753679336,-0.705879384,1.2895553317,1.2903582311,-0.2134790459,-0.5293921185,1.1972971958,0.2612386834,-2.5380020365,-1.1943026689,2.2406695758,2.1947382953,0.5736893128,-0.5549741314,-2.9231515983,0.3384019364,-2.4478918301,-2.7784431269,-0.1427620544,-2.4189454243,-1.5645447665,-0.3170721812,-0.1030147093,0.9829828783,-0.1719886711,0.8791099203,3.5222624394,1.5832219949,-0.1811659164,0.0244111178,2.3184182607,1.0100264261,0.2415628734,-0.5064200834,0.9370236685,1.4037968739,0.1898186539,-0.0204780401,1.0846858078,2.0201368979,0.355785743,-0.5997856622,-0.5979975169,1.4389842373,-0.8308802237,-1.7730244754,0.5822541263,-0.9847756205,-0.7596420816,-1.1362468497,1.0071013504,-0.3435131044,0.4561521059,1.6763122688,1.2016317293,-0.4112876858,-0.2739882876,1.1542216627,0.3162360347,-0.7535732384,1.6984460906,-1.4093068891,-1.4089023837,1.2929898106,1.2712031615,-0.8828957252,-0.5991912558,-1.5106314618,1.5155269052,1.4853987996,1.0151341841,-1.5178951455,0.1023639194,-0.2420521401,1.3273777243,0.5295842039,0.7557016341,3.8601897467,1.2388728693,0.6611245458,-0.705422474,1.0600456179,-3.4344341709,-0.4001201988,-1.0331382535,0.1144493893,-1.925897154,-2.9328253992,1.3000637614,-1.3986747946,-2.3908483468,-4.1036430691,0.2033789607,-0.5858889796,-1.3063540112,-1.5275617264,-0.1527442051,0.8318899658,0.5168418253,3.1067965813,3.3317630473,-0.5646856614,1.4771667099,0.5398553858,0.0594832179,0.2124630151,-1.8491713053,1.5079170164,1.8778498611,-0.5165733471,1.28573007,0.8918268116,-2.3890388598,1.2660482173,-2.0466851737,1.0415681441,0.7146852514,1.5105886231,-0.4923656065,0.1578703556,0.4978366397,0.4985317395,-0.3231366253,0.6822827175,0.6810777125,-2.0773047479,2.0969054345,-0.3340451355,-0.6596052979,0.4141644369,2.6603925293,-0.5749363618,-1.7134631225,-1.3907273827,-0.2593157043,-0.6128525825,2.1452191672,1.4076721375,-0.853839836,1.325634436,-0.8282992304,-0.9609678379,-1.5009989734,-0.972373002,1.3118039686,2.722696906,-1.8991909547,1.6029304207,-1.878436102,-0.7701948009,0.7155487819,-1.606680588,0.3666731775,-0.9567892642,-0.1402345134,-1.4990464591,-1.4455117588,-1.6111811517,1.3619448522,-2.1585748742,-0.6802057183,-0.3199815746,1.5061903455,-2.114968224,0.0104438158,-0.8458576892,2.529608277,0.6537269856,-0.6735265599,-0.6130461584,1.63134246,-3.0285884533,0.1443310245,1.0811094958,2.8229296631,-0.2244267675,-0.411265898,-0.5576755746,-1.6136605827,-0.3478837302,-0.0142953563,-3.5348155501,4.0750145797,-0.4677355598,0.4358125032,0.4831838505,-0.9374182125,-1.1930873948,-1.0989508065,4.2767073634,1.7180433416,-0.3019955494,1.9150976773,0.3261338307,-2.3456254543,-0.4904434773,0.8070193624,3.6524744904,0.4642851662,0.3434063511,-0.7069518179,0.608411408,0.3897023983,2.927187101,1.825348879,1.275729593,-3.4386059918,1.0504767679,-1.5179513514,0.7161047795,2.2803352925,-0.233743558,-1.4243811199,1.0780649652,0.8375353459,-4.1665686267,3.7441479984,0.6841966755,1.9026381898,-0.576645611,3.8780926136,-1.5560609487,-0.6590652562,-2.3669789787,-2.4802811253,2.624124396,-0.8663669035,-0.5254119495,2.481778229,0.8797157991,-1.460419458,-1.8033966976,0.9984704082,5.2279050968,5.5277564439,0.8618616854,-2.3156077415,0.1247453754,-3.4181163951,2.8631395895,0.2556286063,-1.9102687846,0.7855796401,-0.3758256802,-0.8288530008,1.8981215041,-2.3082849516,2.3003185968,0.0279816189,1.5200622272,-1.6596886882,-2.7376113927,1.4507303878,-0.2328100333,-2.0936077887,-0.1851889548,0.8476670469,1.8876597846,-0.7454402029,1.1201931978,-1.992721739,-0.8656867809,-0.1191510905,1.0276346636,-0.0707317464,-1.8458908545,-3.0905478318,-1.1053977679,-0.7916269146,0.2659200346,0.6189042211,-0.3335697893,1.581572978,0.0329225617,-1.1663528495,-2.1355674928,-3.4019345762,-0.0313761402,0.2725897272,-0.9300358313,0.663807047,4.3894124942,0.4308740456,0.0448036135,-1.8212846433,-0.1945859078,1.042287013,0.6339734697,-0.1714508207,0.386671191,-0.0255824373,0.5032824954,3.0416599793,1.3477263213,-5.0402718553,-0.78845852,5.8265490056,-0.6976002855,-1.4195838388,-2.6526100975,-6.0324555992,-0.6113099886,-0.1695646549,0.6429921517,-0.2866454487,0.0694639092,-1.6768088977,-0.4530558268,0.2078608203,2.5229396853,-1.1330353768,-0.1410282562,1.5932900526,1.1748837196,-1.2579014253,-0.1429742287,2.0923306084,0.8075651629,0.7020692986,1.1425206891,3.7527316542,-0.7418952553,1.1887775614,2.9005331464,0.0847151493,-1.1571242667,-0.3974859202,-2.1519515647,0.4003030312,-2.375706028,-1.4697802452,-1.0624658927,0.8736590786,0.4440063023,0.363870766,-0.2461311155,-3.3856908245,1.1137761735,1.79352886,-1.5986297185,2.754162279,-1.3196730852,-0.3707056435,-0.665501491,0.2592606433,2.7820009156,-2.067837835,4.3566585532,-1.5616003536,-0.5995118572,-2.2503900064,-1.6949408322,-1.4117898937,1.7823858399,1.6748319568,-0.9256721997,2.0990751069,-2.453153892,-1.7022321485,0.5112688205,0.8190114265,1.2804961364,-1.0584601042,-0.8767979447,2.3213934288,-0.072018907,-0.0214662063,-1.0672912599,2.888167829,-2.6158879405,1.7903249011,-0.0041664373,1.133259972,3.0715929028,0.1759685825,-0.385328757,-1.2594911272,0.1240816226,1.0769718469,-1.1544080282,0.124090855,0.3899674223,2.2296794128,2.1212784758,-0.6145529304,-0.7112811255,2.2862044075,2.3183162542,0.1677953376,-2.0780102274,1.8287424937,-1.6088914337,0.9083051037,2.9789504671,1.9412460359,-1.0298692835,0.6554478877,4.685789887,2.6578816075,0.6915196959,2.1092059814,-0.1395722667,0.7937051697,-0.3577279757,-0.2281613749,2.3220622714,-0.9273964983,2.0675021916,-0.1981160121,-1.7319959859,1.2041981758,-0.838196738,-0.1823550142,-3.6004637824,1.5883758483,0.0311763314,1.8710240465,2.4617615493,1.8715019216,-2.1202473272,1.3187733346,-0.6097454931,-2.9919415825,3.1338546744,-2.1825339545,0.1716368357,2.5781400533,1.1789546127,-2.233301974,-0.3757932555,1.5734183267,0.6848717481,3.0006306056,2.475911913,3.2142234271,1.9431334664,2.1128305087,-4.1923972405,-2.2147413052,1.0435445524,-0.8107124349,-0.4733065988,1.3106617712,-3.1314137858,4.0896986848,-0.4304530743,-1.3344519455,0.0958599302,0.4557872691,0.5393257311,-0.7917364695,0.2103650566,0.0764833065,0.1518993155,-1.2572485171,2.3854152959,-2.6018409102,1.5426156226,-0.6555858045,0.4308163647,0.8580468903,-0.7536426401,1.2186120861,-0.1980794694,2.0806209758,0.438173045,-0.8606862549,-1.6465593604,0.9436396302,-0.8741062405,2.2585666328,1.1771746436,-0.8952858758,2.690335355,2.935789842,-1.1016665542,2.4699786121,-2.0211260338,1.6231590964,0.2665319743,1.1250792792,0.5475891572,-1.5504377631,0.690297613,0.0830205133,0.0833209801,2.8177137879,2.7735107951,-1.5769041207,1.8067433722,-0.1140229144,1.8757062113,0.3259740367,0.5236758844,-2.0491487052,-0.9725914047,-1.7208583668,-1.2918089996,1.3743075358,0.1351621154,0.0902731395,-1.352162802,1.7010882755,-0.2578372602,0.8992087359,0.2776047091,0.2733838154,-0.2639930491,-1.7099076363,-0.8282888373,-1.2081672555,-2.179894418,-1.0666513306,1.5138481719,0.8639148747,2.8575874697,-3.4835624318,-2.7933581785,0.8390014529,3.090926954,0.782531041,-2.4886567287,1.0128931321,-4.7830550777,-0.5826752926,1.9782958932,0.6829250543,0.1060396248,-1.5046111301,4.1625313344,1.9089726402,1.8810820861,1.38814994,0.6392545036,-1.1154587333,1.1823145949,-0.7997975578,1.1942642598,1.8898759498,2.0663382167,-0.0495213785,-1.5414741501,-1.2525512995,0.2757370688,-3.195483217,0.0959005523,2.7951531873,2.2074191182,-0.5626487118,0.9200386805,-0.8856845534,0.5086871229,2.2738257398,1.1214161194,-1.2011198549,0.3293540201,-0.386487242,1.8503242002,1.3644210198,1.4631905913,-3.3847599873,-0.7230201296,3.7803497296,1.5520387131,3.1234836151,1.797437388,0.4789641816,1.4622602452,-1.2274823233,-2.3081010536,-2.0943859531,0.6789805971,-0.0530420405,-1.2702789948,0.143649452,0.9302537922,1.675459449,1.9314767375,-0.5058815092,-0.4940913642,-2.9459660471,1.4990763188,0.6629399689,1.4069742533,-0.5482958647,-0.2066557637,-1.3163569777,0.1320524701,0.4490907024,1.9176563792,-0.6454438642,0.2544855531,-0.0763420255,0.6226372496,0.3098010626,0.2344577088,0.4584713534,-0.3326813514,-0.0194725807,-0.6493881293,-0.9982354819,-0.2939696235,1.3990173522,1.5165355434,0.3057125938,0.9935823211,-2.03093987,-1.5210931153,0.9130737436,-1.8317168848,-0.0759398118,1.8299264298,-0.5805587794,0.8072184379,0.5027599549,0.6284208928,2.5910100668,-1.6215294414,4.5241359452,2.9925715304,-1.5661895249,2.7556381934,0.0201025713,1.3467625315,1.2153914339,2.2127632542,0.7065474329,-2.5404040128,1.1869106654,-1.1906232702,2.3583955006,2.1041052457,-0.1019947835,4.8828997738,0.4265045335,-1.4730411295,0.5818363404,-0.7788643943,0.7427817389,-0.2616264607,-0.7149225472,-0.0913458809,2.6344469392,3.2714539319,-0.5892545847,0.766631044,0.0968700309,1.2515315146,1.5370166759,2.4521145337,-0.3880089581,-0.4467683824,2.3762991477,-0.2992622391,-0.384983431,2.5799728713,1.6365697581,-0.0117300577,0.6706329935,-0.9766295074,-1.3130932528,-2.5481536136,-0.1205202784,1.1647467851,-0.0837323142,0.8258077578,1.0658331345,2.4647587751,-3.9545923438,-0.8285729323,0.8091060879,0.4034054785,-0.3879320501,-0.8184076611,-1.6925852956,7.8870087666,1.2838193207,-1.2522018857,1.6966656432,2.4662921485,-0.1887950703,-0.5428668486,-0.0199495395,3.5718187714,1.081538894,-3.2683375487,0.2904515261,1.007679086,-1.010578929,0.6053943454,-1.2647534043,0.1575957498,-0.5899186942,1.2356234962,-0.7604727851,0.9186320371,2.2463285043,0.3579360497,0.0123708015,-1.4761935922,2.2021510468,-0.7150768104,0.3721416896,2.1981759718,0.8928287536,0.2064490846,1.8494154555,-1.7011311748,0.5521179193,-2.9062355375,0.9112959178,-2.9125224879,-0.5463435681,-0.1622771188,-0.5589204169,-0.0191215925,-0.6279527988,-1.0866524693,-3.3443715666,0.0348562826,-1.8632003389,-0.1665685932,-0.8254155149,0.5518628186,-1.1660677669,3.094673829,1.3484576209,0.508288434,1.5923916827,1.1250967306,-0.7169065569,0.2868344162,-0.1887064111,0.0624254294,1.9393160283,0.8020761401,0.6958157477,1.0627372942,-0.2615334874,-1.3143720044,-1.2521500152,-1.9412467897,1.327243775,3.4258358738,-0.2903715185,0.6539418695,0.0384472702,1.2775710537,1.6058066678,-1.7039345069,2.1586622595,1.9895528264,-1.4947741796,1.1913208442,-1.1864733436,0.6298816414,-0.4244185762,0.3255227546,-0.3776501737,-2.1386695103,1.4659985245,-0.804676755,4.5489395866,1.976145867,-0.9056318308,-1.3093430445,0.07888666,0.1521927516,2.5993200887,-1.0911594346,0.0096946772,-1.2981605418,-0.727532818,-0.2979460976,-2.7716260639,0.6433517848,0.3553023735,4.1227593203,0.8431227075,2.0409094426,1.3517520658,0.3469040927,-0.861686756,-0.5767741555,3.6935752497,-0.6095323136,1.9282431449,-1.6783564387,1.8431340815,3.4251815373,1.4379781494,1.2210744484,-3.3148490271,-0.2895557571,-0.138135167,-0.7507871115,1.036503971,1.089246722,0.5869215025,1.3608126537,0.2102947359,-0.7875365001,-1.8546135039,-3.0721164991,2.3813017379,2.3296571507,-2.3493417212,-0.9300662089,-2.513943561,-0.0471257773,-1.0034685151,1.5772862474,1.1175596271,-0.9829371185,-1.8324843227,1.9545000006,-2.099418201,0.273795334,3.2246727122,-0.563758396,0.0300268267,-3.003013041,0.2397978273,-1.6230836983,1.8180423725,2.8406171248,-0.9916622861,1.517286253,-1.6243694122,-2.2164908065,-1.0895575752,-2.3000899664,-0.9505148264,0.4278223326,0.7829041376,1.8132071206,-0.6158352363,-1.9564682387,-1.9349184029,2.0140052306,-1.9831078031,-1.6233008665,4.523572118,2.3007177933,0.3813395679,0.9006405355,0.0627195554,-1.7893179052,-0.8860888566,-0.1964802566,3.1563174959,-1.3812384897,1.6079553537,2.039772123,-0.7402267714,0.8932344384,0.8774401309,4.6540753972,-0.2231377088,-0.3855367405,-2.3083272419,-1.4479712884,1.4809267776,0.2531315387,-0.8535645207,-0.0568729875,2.7312515898,2.3421243173,-0.5272850795
