encog,BasicNetwork,java,3.3.0,1,63630967361580
[BASIC]
[BASIC:PARAMS]
[BASIC:NETWORK]
beginTraining=0
connectionLimit=0
contextTargetOffset=0,0,0,0,0,0,0,0,0,0
contextTargetSize=0,0,0,0,0,0,0,0,0,0
endTraining=9
hasContext=f
inputCount=105
layerCounts=3,33,33,33,33,33,33,33,33,106
layerFeedCounts=3,32,32,32,32,32,32,32,32,105
layerContextCount=0,0,0,0,0,0,0,0,0,0
layerIndex=0,3,36,69,102,135,168,201,234,267
output=0.025503255988981,0.0270678771601383,0.0343622777615886,-1,1,-1,-1,1,-1,-1,1,0.689027682504736,1,1,1,1,1,-1,-1,0.986669068656353,1,1,-1,-1,-1,-1,0.999994284485009,-1,-1,-0.890506931275569,1,1,-1,1,1,1,1,-1,-1,1,1,1,1,-1,1,-1,-1,1,-1,1,-1,1,1,-1,1,-1,-1,1,1,1,1,-1,-1,1,1,1,1,-1,1,1,-1,1,-1,1,1,1,1,1,1,1,1,1,-1,-1,1,1,1,1,1,1,-1,1,-1,1,1,1,-1,-1,-1,-1,1,1,1,-1,1,-1,-1,-1,1,-1,1,-1,1,-1,-1,-1,-1,-1,1,-1,-1,1,-1,-1,-1,1,1,-1,-1,-1,1,-1,1,-1,1,-1,0.999999999998269,1,-1,1,1,-1,-1,-1,-1,-1,1,1,1,1,-1,1,-1,1,-1,-1,1,1,-1,1,1,-1,1,1,1,-1,1,1,-1,-0.995519297326653,-1,0.999937723682759,-1,-1,-1,1,1,1,-1,1,1,-1,1,-0.777803726571455,1,1,1,-0.99971246908275,-1,1,-1,-1,1,-1,-1,-1,-0.985705943664157,-1,1,-1,1,1,-1,1,-1,-1,1,-1,-1,-1,-1,-1,-1,0.999999991209609,-1,-1,-1,-1,1,-1,-1,1,1,1,1,1,1,-0.837864766239817,-1,-1,-1,-1,1,1,-1,-1,-1,-1,1,-1,1,-1,-1,1,1,1,-1,1,1,1,-1,1,-1,-1,-1,-1,-1,1,1,-1,1,-1,1,-1,-1,1,1,39205.219614,1383,41.1,40.96,41.54,40.91,34999850,41.94,42.138,43.1604,43.7074,0.7164,49.8999,11.0815,12.5217,12.4229,0.0939,41.6749,-41.581,42.5027,42.117,39.4173,70624.927121,1071,41.46,41.42,41.69,41.04,24699710,41.0112,41.6645,42.7104,43.5516,0.7394,49.9822,12.7443,18.7149,22.6009,-0.0296,41.2972,-41.3268,42.9115,41.5907,39.9285,50804.93584,1101,41.25,41.48,41.62,41.25,25722630,41.075,41.647,42.6622,43.531,0.6902,50.4368,13.5285,16.2196,23.6444,-0.029,41.3338,-41.3628,42.9613,41.5657,39.9987,53534.724,1157,41.63,41.72,41.95,41.41,27856770,41.17,41.6539,42.6252,43.513,0.6702,50.3875,11.7671,20.6227,20.4918,-0.052,41.411,-41.463,43.181,41.6007,40.259,76318.99528,763,41.4,41.76,42.06,41.39,30270750,41.3081,41.664,42.5913,43.4956,0.6701,50.3479,11.0097,20.0616,17.7595,-0.0424,1
outputCount=3
weightIndex=0,99,1155,2211,3267,4323,5379,6435,7491,10883
weights=##0
##double#10883
   0.0605110314,-0.0984056537,-0.8657245001,-0.9363455166,-0.3548513468,0.3223568163,0.6092674231,0.0640201223,0.085242411,-0.2510004557,0.0261524404,-0.1436580955,0.3491255887,0.0265251409,0.2141406322,-0.0789068318,-0.1446316254,0.1684694238,-0.1556515948,-0.3063788062,0.8368027752,0.1484605246,0.2049543167,0.1760085481,0.2149218135,0.1747276679,-0.1401433803,-0.1351495199,0.3893528362,0.0783260353,-0.1684322477,0.2054664884,0.7702869548,0.115231714,-0.0767335615,0.4606354793,-1.1930579184,-0.0602269267,0.6194196644,0.6144816367,0.6098580007,0.0140726346,-0.2449832212,-0.1749056307,-0.0779107198,0.6208005108,0.3473211043,0.1872573437,0.115436587,0.1292423675,0.2330744611,-0.1755118493,-0.0998387609,0.0908198367,0.52405522,1.7027763212,0.2062526443,0.6165609242,0.1629867101,-0.0209145935,-0.009270559,0.6717898671,0.0778297997,-0.0122124473,0.3192187572,1.8068942463,0.1899802641,-0.1392061722,-0.0128823431,-0.3834465311,-0.1874833819,1.7208564661,0.1241927958,-0.1035426988,0.0103923424,-0.0306559841,0.0317740395,-0.0706060185,0.4577383068,0.3207916354,0.114570732,-0.0118052339,-0.0989639932,-0.1439797707,-0.1398797383,0.0128422759,-0.0310473718,0.3449005532,-0.3878500798,0.2238353499,-0.2401275012,0.0880383567,-0.089140988,-0.0808529301,0.376891865,0.2904139038,-0.2016040895,0.1932693158,1.4699626447,0.0343148147,1.5758995369,2.9125459013,-3.3696803308,0.935915413,-2.6455946792,-1.1146097303,-0.2683230541,-3.3865438241,1.3901017412,2.3672671309,0.7527802764,0.586921136,-0.2688577998,-1.8332264578,-0.7767891022,-3.7821905977,-3.0292807845,-0.2886416347,1.5706417562,-0.4132008001,-1.4960772613,-0.9419932975,3.8806190652,-2.3013148264,0.8283949391,-0.0208763064,-3.2237282474,2.9459202339,-0.3459456614,0.8668166554,4.7637155524,4.1492903414,-2.7337628578,1.3709279984,-1.2086502846,-0.699766176,-0.5944290577,0.2225247593,0.3634915359,1.1482979434,5.5263581663,1.264005618,1.6058762355,1